tree
version=v3
num_class=1
num_tree_per_iteration=1
label_index=0
max_feature_idx=2
objective=regression
feature_names=tau rho diameter
feature_infos=[-1.4152829111552818:1.4152829111552818] [-1.5627836660215479:1.8980180170924166] [-1.4025678906600363:1.7133743326433764]
tree_sizes=970 1091 1088 1094 1100 1011 1009 1192 1106 1100 1099 1012 1096 1108 1094 1013 1187 1111 1108 1110 1109 1018 1109 1023 1113 1105 1104 1108 1106 1105 1198 1023 1021 1105 1022 1027 1280 1019 1114 1019 1015 1109 1104 1116 1115 1026 1121 1111 1019 1018 1117 1121 1037 1033 1121 1031 1130 1033 941 1127 944 1037 949 938 1034 1036 937 950 1038 1115 1122 1119 1122 1035 1037 953 1039 1037 1038 1045 1033 1038 1042 1132 1040 1039 1044 1044 1043 1144 1131 1040 1132 1047 1042 1043 1046 1044 1044 1041 1045 1047 1139 1143 1051 1048 1048 1052 1049 1145 1146 1144 1136 1142 1043 1046 1045 1044 1139 1146 1142 1140 1145 1137 1145 1142 1044 1233 1237 1044 1238 1142 1234 1139 1233 1044 1236 1139 1235 1139 1234 1140 1235 1139 1239 1146 1243 1139 1248 1045 1242 1050 1148 1048 1237 1056 1145 1146 1148 1140 1144 1139 1051 1145 1058 1049 1057 1145 1061 1047 1143 1148 1150 1148 1139 1047 1049 1146 1141 965 1148 1054 1048 1055 962 1144 1147 1048 1145 1055 1149 1150 1049 1143 1149 1143 1141 965 1050 1239 1053 1237 1144 1149 1055 1054 1151 1144 1143 1241 1056 1054 1145 1140 1143 1144 1137 1240 1061 1151 1062 1151 1060 1063 1054 966 1053 967 1152 1054 1151 971 1143 1143 1154 1151 1055 1060 1151 966 1051 1061 1045 1051 1048 1242 1242 1243 965 1245 1063 963 1056 1246 1144 1062 1060 1048 1147 1054 1144 1050 1143 962 1053 1047 955 1158 1154 1147 1156 1054 1159 1158 1060 966 1147 1060 1155 1151 1053 1147 1142 1059 1061 1057 1062 1153 1058 1054 1144 1054 1059 1058 1153 1162 963 1054 1056 1243 1246 1247 1052 1059 1241 968 1156 1148 1051 1059 1152 1051 1145 1058 1054 1062 1057 1244 1059 1051 1246 1146 1055 967 1057 1146 1140 1148 1153 1058 1151 971 1239 970 1059 1150 1247 1150 1056 1250 1152 1143 1056 1056 1149 1155 1239 1151 1243 1150 1236 1059 1141 1241 1240 1143 1145 1150 1055 1235 1245 1061 1058 1236 1145 1237 1149 1141 1145 1240 1154 1149 1153 1060 1059 962 1061 1067 1060 1154 1149 1150 1149 1149 1151 1157 1150 1155 1147 1239 1150 1244 1243 1137 1056 1138 1141 1064 1136 1134 1157 1153 1138 1152 1147 1059 1144 1141 1059 1058 1058 1052 1144 1065 1054 1145 1049 1149 1057 1149 1061 1148 1245 1053 1049 1060 1142 1148 1065 1145 1057 1055 969 970 1147 1050 1056 1151 1050 1060 1053 1248 1240 1147 1152 1054 969 964 1152 1148 1151 1059 1057 1145 966 1148 966 1053 1155 1057 1139 964 1250 1053 1252 963 1152 1055 1251 1061 1243 1057 1156 1241 1152 1057 1159 1243 1058 1158 1056 1157 1152 1156 1151 1158 1062 1149 1243 1061 1160 1065 1059 1148 1246 1335 1147 1149 1161 1150 1154 1162 1057 1150 1246 1054 1240 1157 1155 1149 1053 1154 1052 1242 1162 1153 1052 1155 1157 1249 1159 1065 1151 1162 1153 1066 1343 1064 1337 1248 1157 1332 1070 1158 1161 1344 1249 1154 1062 1154 1241 1059 1061 1069 1066 1342 1159 1253 1157 1151 1156 1065 1157 1151 1154 1151 1153 1059 963 1155 1059 1239 1060 1244 1150 1071 1060 1158 1069 1059 1154 1056 1249 1157 1058 1150 1069 1247 1061 1158 1247 1059 1067 1150 1241 1066 1152 1149 1152 1153 1154 1157 1154 1155 1152 1156 1156 1154 1246 1152 1150 1247 1150 1149 1249 1154 1153 1151 1153 1153 1250 1150 1061 1154 1148 1147 1068 1156 1150 1159 1148 1152 1064 1155 1049 1150 1158 1245 1145 1057 1066 1065 1246 1156 1057 1152 1060 1149 1152 1060 1152 1055 1064 1064 1153 1065 1252 1152 1250 1246 1244 1057 1155 1239 1149 1059 1158 1154 1154 1061 1256 1258 1161 1152 1246 1258 1056 1151 1157 1147 1158 1257 1155 1146 1065 1141 1146 1153 1152 1149 1154 1057 1144 1146 1154 1155 1050 1057 1067 1153 1161 1246 1054 1254 1058 1060 1059 1151 1061 1153 1149 1060 1060 1148 1154 1241 1259 1061 1149 1245 1154 1241 1059 1155 1064 1065 1067 1154 1154 1151 1066 1061 1145 1055 1064 1145 1056 1070 1151 1146 1057 1153 1056 1056 1057 1150 1153 1056 1152 1063 1147 1149 1140 1065 1150 969 1054 1062 1060 1060 1063 1061 977 1153 1058 1061 1055 1143 1064 1062 1061 1153 1061 1065 1059 960 1244 1244 1245 1143 1060 1149 1152 1149 1154 1247 965 1149 1056 963 1152 1151 1061 1149 1143 1059 1235 1060 1053 1151 1157 1150 1062 1152 1153 964 1147 1055 1067 1156 964 1150 1246 1152 1067 1062 1240 1152 1150 1244 1054 1240 1062 1156 1049 960 1151 961 1054 1057 960 1062 1155 959 1055 961 1057 1160 1243 1063 1246 955 1153 1063 965 1157 1145 1073 1061 1152 974 1061 1152 1064 1159 1151 1150 1063 1157 1059 1064 1152 1153 1155 1058 1054 1151 1062 1060 1241 1150 1236 1062 1153 1056 1156 1157 1158 1155 1058 1247 1158 1067 1064 1238 1157 1156 1151 1057 1162 1068 1246 1162 1059 1060 1066 1155 1065 1143 1158 1151 1063 1154 1063 1063 1154 1157 1068 966 1156 1237 1166 1061 1056 1060 1241 1151 1057 1246 1155 1250 1145 1059 1053 1150 1150 1149 1146 1143 1058 1145 1056 1160 1065 1138 1064 1066 1067 1070 1065 1062 1069 1245 1152 968 1145 965 1144 1151 1148 1065 969 1145 1060 1155 1055 1056 1068 1158 1060 1066 1060 974 1057 972 1064 1058 1159 1064 970 1058 1248 1162 1161 1068 1158 1068 1060 1157 975 972 969 1064 1250 1152 969 1060 1244 1057 1155 1152 1156 1153 1065 1059 973 1159 1146 1064 975 1148 1157 1156 1155 1152 1148 1151 1155 1150 1153 1062 1061 975 1148 1060 1060 1059 1069 1055 1157 1061 968 1249 1069 1247 1068 1062 1059 1060 1159 1062 1059 1157 1065 1158 1067 1158 1161 1152 1073 1058 1071 1157 1159 1057 1147 1057 1247 1152 1156 1155 1153 1065 1151 1068 1154 1159 1160 968 1066 1161 1157 1153 1062 1243 1162 1156 1152 1239 1257 1064 1242 1154 1158 1063 1060 1244 964 1148 1146 1145 1064 1149 1149 1153 1061 1062 1149 1057 971 1057 1057 1149 1060 1057 1243 1154 1246 1061 1149 1152 1065 1065 1057 1059 1068 1058 970 1148 1150 1067 972 1148 1062 975 1145 1245 1068 978 1061 975 1251 1159 1054 1060 1063 1065 1154 1056 976 1158 1064 1150 971 1061 963 1060 1157 968 1156 1148 1157 1159 1163 1155

Tree=0
num_leaves=10
num_cat=0
split_feature=2 0 0 1 1 0 0 1 2
split_gain=18.0032 9.46213 3.87793 2.6022 2.46556 1.29451 0.520676 0.0434155 0.00298428
threshold=0.4419900856158544 -1.0000000180025095e-35 1.0000000180025095e-35 1.0000000180025095e-35 -0.50531648507005877 -1.061462183366461 -1.0000000180025095e-35 0.64828407596792947 -0.4639194031537815
decision_type=2 2 2 2 2 2 2 2 2
left_child=2 5 6 -4 -3 -2 7 8 -1
right_child=1 4 3 -5 -6 -7 -8 -9 -10
leaf_value=0.76538042851784904 0.75960924248891315 0.74019818752709277 0.75854404984046042 0.74495261016300041 0.72529074975992636 0.74680710818234619 0.75933552162604845 0.76323403770173159 0.76482226655959329
leaf_weight=72 47 53 90 80 90 48 85 50 48
leaf_count=72 47 53 90 80 90 48 85 50 48
internal_value=0.751801 0.739727 0.758563 0.752148 0.730816 0.753141 0.76284 0.764592 0.765157
internal_weight=0 238 425 170 143 95 255 170 120
internal_count=663 238 425 170 143 95 255 170 120
is_linear=0
shrinkage=1


Tree=1
num_leaves=11
num_cat=0
split_feature=2 0 0 1 1 0 0 1 1 2
split_gain=16.083 8.45292 3.46432 2.36779 2.20259 1.15644 0.465142 0.387675 0.0387849 0.00266598
threshold=0.4419900856158544 -1.0000000180025095e-35 1.0000000180025095e-35 -0.31304972489706084 -0.50531648507005877 -1.061462183366461 -1.0000000180025095e-35 0.64828407596792947 0.64828407596792947 -0.4639194031537815
decision_type=2 2 2 2 2 2 2 2 2 2
left_child=2 5 6 -4 -3 -2 8 -5 9 -1
right_child=1 4 3 7 -6 -7 -8 -9 -10 -11
leaf_value=0.012834497314441203 0.0073797589046079894 -0.010966942709273706 0.0080622545795315682 -0.0016724203546954169 -0.025056970794989107 -0.0047204047035859144 0.0071210467740619602 -0.0085005300072526213 0.010805798211515664 0.012306940977395028
leaf_weight=72 47 53 70 50 90 48 85 50 50 48
leaf_count=72 47 53 70 50 90 48 85 50 50 48
internal_value=0 -0.0114122 0.00639084 0.000327708 -0.0198348 0.00126599 0.0104329 -0.00508648 0.0120889 0.0126235
internal_weight=0 238 425 170 143 95 255 100 170 120
internal_count=663 238 425 170 143 95 255 100 170 120
is_linear=0
shrinkage=0.0548323


Tree=2
num_leaves=11
num_cat=0
split_feature=2 0 0 1 1 0 1 0 1 2
split_gain=14.3676 7.55135 3.09482 2.12521 1.98985 1.0331 0.444043 0.415531 0.0346481 0.00238163
threshold=0.4419900856158544 -1.0000000180025095e-35 1.0000000180025095e-35 -0.50531648507005877 -0.31304972489706084 -1.061462183366461 0.64828407596792947 -1.0000000180025095e-35 0.64828407596792947 -0.4639194031537815
decision_type=2 2 2 2 2 2 2 2 2 2
left_child=2 5 7 -4 -3 -2 -5 8 9 -1
right_child=1 4 3 6 -6 -7 -8 -9 -10 -11
leaf_value=0.012130751670544147 0.0069751092905718072 -0.01124790622714263 0.0086108054439634676 -0.0010378574501840262 -0.024325951564454711 -0.0044615740782167198 -0.008034425953362602 0.0067305829408979122 0.010213291102361901 0.01163212271121785
leaf_weight=72 47 61 60 60 82 48 50 85 50 48
leaf_count=72 47 61 60 60 82 48 50 85 50 48
internal_value=0 -0.0107865 0.00604041 0.000309739 -0.0187472 0.00119657 -0.00421812 0.00986086 0.011426 0.0119313
internal_weight=0 238 425 170 143 95 110 255 170 120
internal_count=663 238 425 170 143 95 110 255 170 120
is_linear=0
shrinkage=0.0548323


Tree=3
num_leaves=11
num_cat=0
split_feature=2 0 1 0 1 2 2 1 1 1
split_gain=13.0173 8.72859 3.1621 1.39984 1.29646 1.01867 0.920827 0.138986 0.0232883 0.00127999
threshold=1.0000000180025095e-35 -1.0000000180025095e-35 -0.88985000541605486 1.0000000180025095e-35 1.0000000180025095e-35 0.90449043365781956 0.90449043365781956 0.8405508361409274 1.0000000180025095e-35 -0.69758324524305682
decision_type=2 2 2 2 2 2 2 2 2 2
left_child=3 5 -3 7 -5 -2 -4 8 9 -1
right_child=1 2 6 4 -6 -7 -8 -9 -10 -11
leaf_value=0.011770703384599686 0.0077860352643373378 -0.0028526414704608564 -0.015109628738266824 0.008227021323886476 -0.0024987795954024873 -0.0019734701284339247 -0.023805486718683863 0.0077811559879145389 0.0101503036495356 0.011390816042558401
leaf_weight=60 68 47 78 72 64 61 69 48 48 48
leaf_count=60 68 47 78 72 64 61 69 48 48 48
internal_value=0 -0.00788277 -0.015233 0.00748863 0.00317959 0.00317108 -0.0191914 0.0103613 0.0111552 0.0116019
internal_weight=0 323 194 340 136 129 147 204 156 108
internal_count=663 323 194 340 136 129 147 204 156 108
is_linear=0
shrinkage=0.0548323


Tree=4
num_leaves=11
num_cat=0
split_feature=2 0 1 0 1 0 2 1 1 1
split_gain=11.6289 7.79762 2.86319 1.25053 1.15818 0.944665 0.720051 0.124162 0.0208044 0.00114346
threshold=1.0000000180025095e-35 -1.0000000180025095e-35 -0.69758324524305682 1.0000000180025095e-35 1.0000000180025095e-35 -1.061462183366461 0.90449043365781956 0.8405508361409274 1.0000000180025095e-35 -0.69758324524305682
decision_type=2 2 2 2 2 2 2 2 2 2
left_child=3 5 -3 7 -5 -2 -4 8 9 -1
right_child=1 2 6 4 -6 -7 -8 -9 -10 -11
leaf_value=0.011125288572821617 0.0077259589029978655 -0.0043214391076643269 -0.015055576452667935 0.0077759146938489367 -0.0023617657252057861 -0.0016588131050751162 -0.023082487798553875 0.0073544968942035171 0.0095937389039247329 0.010766231364315749
leaf_weight=60 64 59 72 72 64 65 63 48 48 48
leaf_count=60 64 59 72 72 64 65 63 48 48 48
internal_value=0 -0.00745054 -0.0143977 0.00707801 0.00300524 0.0029972 -0.0188015 0.00979319 0.0105436 0.0109657
internal_weight=0 323 194 340 136 129 135 204 156 108
internal_count=663 323 194 340 136 129 135 204 156 108
is_linear=0
shrinkage=0.0548323


Tree=5
num_leaves=10
num_cat=0
split_feature=2 0 0 2 1 0 1 0 0
split_gain=10.5721 5.40361 2.25848 1.71277 1.45458 0.836477 0.646534 0.309872 0.0295438
threshold=0.4419900856158544 -1.0000000180025095e-35 1.0000000180025095e-35 -0.4639194031537815 -0.31304972489706084 -1.061462183366461 1.0000000180025095e-35 -1.0000000180025095e-35 -1.061462183366461
decision_type=2 2 2 2 2 2 2 2 2
left_child=2 5 7 6 -3 -2 -4 8 -1
right_child=1 4 3 -5 -6 -7 -8 -9 -10
leaf_value=0.01051958567256933 0.0060836657205248822 -0.0095750453179777022 0.0088956509343867743 -0.0064547334866983533 -0.020756595553987678 -0.0042072963435613921 0.00014954483033174649 0.0057419903516682282 0.0090738955899570973
leaf_weight=85 47 61 54 68 82 48 48 85 85
leaf_count=85 47 61 54 68 82 48 48 85 85
internal_value=0 -0.00925267 0.0051815 0.000286008 -0.0159868 0.000884022 0.00477984 0.00844516 0.00979674
internal_weight=0 238 425 170 143 95 102 255 170
internal_count=663 238 425 170 143 95 102 255 170
is_linear=0
shrinkage=0.0548323


Tree=6
num_leaves=10
num_cat=0
split_feature=2 0 0 1 1 0 1 1 1
split_gain=9.44454 4.82727 2.0176 1.58038 1.29944 0.74726 0.327805 0.28925 0.034717
threshold=0.4419900856158544 -1.0000000180025095e-35 1.0000000180025095e-35 -0.50531648507005877 -0.31304972489706084 -1.061462183366461 0.64828407596792947 0.45601731579493127 -0.31304972489706084
decision_type=2 2 2 2 2 2 2 2 2
left_child=2 5 7 -4 -3 -2 -5 8 -1
right_child=1 4 3 6 -6 -7 -8 -9 -10
leaf_value=0.0099472268151822758 0.005750084443553293 -0.0090500233385933538 0.0074286810667614335 -0.00090174854886552504 -0.019618463129417067 -0.0039766006607217528 -0.0069132109683865146 0.0054816082910934677 0.0082938219332837904
leaf_weight=105 47 61 60 60 82 48 50 90 60
leaf_count=105 47 61 60 60 82 48 50 90 60
internal_value=0 -0.00874533 0.00489738 0.000270326 -0.0151102 0.000835549 -0.00363423 0.00798209 0.00934599
internal_weight=0 238 425 170 143 95 110 255 165
internal_count=663 238 425 170 143 95 110 255 165
is_linear=0
shrinkage=0.0548323


Tree=7
num_leaves=12
num_cat=0
split_feature=2 0 1 0 1 2 0 2 1 1 2
split_gain=8.63812 5.69391 2.30793 0.862689 0.866778 0.823279 0.631474 0.256826 0.0981162 0.014595 0.000900192
threshold=1.0000000180025095e-35 -1.0000000180025095e-35 -0.88985000541605486 1.0000000180025095e-35 -0.31304972489706084 0.90449043365781956 1.0000000180025095e-35 0.90449043365781956 0.8405508361409274 1.0000000180025095e-35 -0.87529438408746063
decision_type=2 2 2 2 2 2 2 2 2 2 2
left_child=3 5 -3 8 -5 -2 -4 -8 9 10 -1
right_child=1 2 6 4 -6 -7 7 -9 -10 -11 -12
leaf_value=0.0095343860510651267 0.0066553111569172185 -0.0017810655711016246 -0.010657224367431498 0.007949602795890234 -0.00094488779875134983 -0.0021184483935978754 -0.015640757265987879 -0.02126531323674637 0.0061875959290955303 0.0082269549965588561 0.0092177776891756054
leaf_weight=54 68 47 49 56 80 61 52 46 48 48 54
leaf_count=54 68 47 49 56 80 61 52 46 48 48 54
internal_value=0 -0.00642137 -0.0123579 0.0061003 0.00271755 0.00250648 -0.0157396 -0.0182809 0.00835547 0.0090225 0.00937608
internal_weight=0 323 194 340 136 129 147 98 204 156 108
internal_count=663 323 194 340 136 129 147 98 204 156 108
is_linear=0
shrinkage=0.0548323


Tree=8
num_leaves=11
num_cat=0
split_feature=2 0 1 0 1 2 0 2 0 0
split_gain=7.71679 5.08661 2.06177 0.770676 0.782397 0.73547 0.564122 0.229433 0.0971412 0.00319001
threshold=1.0000000180025095e-35 -1.0000000180025095e-35 -0.88985000541605486 1.0000000180025095e-35 1.0000000180025095e-35 0.90449043365781956 1.0000000180025095e-35 0.90449043365781956 -1.0000000180025095e-35 -1.061462183366461
decision_type=2 2 2 2 2 2 2 2 2 2
left_child=3 5 -3 8 -5 -2 -4 -8 9 -1
right_child=1 2 6 4 -6 -7 7 -9 -10 -11
leaf_value=0.0090089515319245698 0.0062903851485342785 -0.0016834055067043515 -0.010072864115564991 0.0064896093708158844 -0.001842663198215785 -0.002002288890159716 -0.014783138109508135 -0.020099286663488203 0.0062051700351468363 0.0084778308567488702
leaf_weight=68 68 47 49 72 64 61 52 46 68 68
leaf_count=68 68 47 49 72 64 61 52 46 68 68
internal_value=0 -0.00606927 -0.0116803 0.00576581 0.00256854 0.00236904 -0.0148766 -0.0172785 0.00789732 0.00874339
internal_weight=0 323 194 340 136 129 147 98 204 136
internal_count=663 323 194 340 136 129 147 98 204 136
is_linear=0
shrinkage=0.0548323


Tree=9
num_leaves=11
num_cat=0
split_feature=2 0 0 2 1 0 1 1 1 1
split_gain=6.92554 3.50987 1.43779 1.30686 0.961199 0.666535 0.404714 0.242714 0.0577627 0.00287602
threshold=0.4419900856158544 -1.0000000180025095e-35 1.0000000180025095e-35 -0.4639194031537815 -0.31304972489706084 -1.061462183366461 1.0000000180025095e-35 0.8405508361409274 -0.12078296472406284 -0.88985000541605486
decision_type=2 2 2 2 2 2 2 2 2 2
left_child=2 5 7 6 -3 -2 -4 8 9 -1
right_child=1 4 3 -5 -6 -7 -8 -9 -10 -11
leaf_value=0.0087506328584690089 0.0053222653446257876 -0.0077039954119633531 0.0074694522045740484 -0.0056003574558757306 -0.016793485110780739 -0.0038640310772972922 0.00054965183019266262 0.0037480615239154995 0.0065423986727575593 0.0082137592471972463
leaf_weight=60 47 61 54 68 82 48 48 60 75 60
leaf_count=60 47 61 54 68 82 48 48 60 75 60
internal_value=0 -0.00748881 0.00419373 0.000287702 -0.0129162 0.000680768 0.00421308 0.00679775 0.00773612 0.0084822
internal_weight=0 238 425 170 143 95 102 255 195 120
internal_count=663 238 425 170 143 95 102 255 195 120
is_linear=0
shrinkage=0.0548323


Tree=10
num_leaves=11
num_cat=0
split_feature=2 0 1 0 0 2 1 2 2 0
split_gain=6.24624 4.0978 1.7662 0.635879 0.628927 0.385166 0.250361 0.0393201 0.010425 0.00512814
threshold=1.0000000180025095e-35 -1.0000000180025095e-35 -0.69758324524305682 1.0614621833664615 -1.061462183366461 0.90449043365781956 0.64828407596792947 -0.4639194031537815 -0.87529438408746063 -1.0000000180025095e-35
decision_type=2 2 2 2 2 2 2 2 2 2
left_child=3 4 -3 6 -2 -4 7 8 9 -1
right_child=1 2 5 -5 -6 -7 -8 -9 -10 -11
leaf_value=0.0078290530054485798 0.0059718250338129057 -0.0025826506214775297 -0.011215706735661104 0.00044484041833125489 -0.0016856396281541676 -0.017086420277637071 0.0037959002971321813 0.0060877691429853066 0.0072401183490858126 0.0086305667438198626
leaf_weight=48 64 59 72 68 65 63 80 48 48 48
leaf_count=48 64 59 72 68 65 63 80 48 48 48
internal_value=0 -0.00546044 -0.0104967 0.00518742 0.00211341 -0.0139554 0.00637306 0.00744688 0.00789991 0.00822981
internal_weight=0 323 194 340 129 135 272 192 144 96
internal_count=663 323 194 340 129 135 272 192 144 96
is_linear=0
shrinkage=0.0548323


Tree=11
num_leaves=10
num_cat=0
split_feature=2 0 0 1 1 0 1 0 0
split_gain=5.63814 2.79105 1.2007 1.13028 0.763987 0.539247 0.248665 0.204018 0.0224113
threshold=0.4419900856158544 -1.0000000180025095e-35 1.0000000180025095e-35 -0.50531648507005877 -0.31304972489706084 -1.061462183366461 0.64828407596792947 -1.0000000180025095e-35 -1.061462183366461
decision_type=2 2 2 2 2 2 2 2 2
left_child=2 5 7 -4 -3 -2 -5 8 -1
right_child=1 4 3 6 -6 -7 -8 -9 -10
leaf_value=0.0078898407935943608 0.0047029841176485562 -0.0069499833168358257 0.006268213494808092 -0.00070772749941817664 -0.015053541500865932 -0.0035597298319681361 -0.0059434891766114578 0.0039701873151497986 0.0066306946930492902
leaf_weight=85 47 61 60 60 82 48 50 85 85
leaf_count=85 47 61 60 60 82 48 50 85 85
internal_value=0 -0.006757 0.00378392 0.000214439 -0.0115968 0.000528139 -0.00308762 0.00616357 0.00726027
internal_weight=0 238 425 170 143 95 110 255 170
internal_count=663 238 425 170 143 95 110 255 170
is_linear=0
shrinkage=0.0548323


Tree=12
num_leaves=11
num_cat=0
split_feature=2 0 0 1 1 0 1 2 2 2
split_gain=5.11776 3.36039 1.0401 1.28552 0.751484 0.519533 0.211198 0.0676088 0.0180494 0.00448675
threshold=1.0000000180025095e-35 1.0000000180025095e-35 -1.061462183366461 0.26375055562193317 -0.50531648507005877 1.0614621833664615 1.0328175963139254 -0.4639194031537815 -0.87529438408746063 -1.2347626429937713
decision_type=2 2 2 2 2 2 2 2 2 2
left_child=5 2 -2 -4 -3 6 7 8 9 -1
right_child=1 4 3 -5 -6 -7 -8 -9 -10 -11
leaf_value=0.0077734042799508995 0.0053400843902549518 -0.0062733489922924997 0.0013246939735148189 -0.0097712345204051653 -0.014969670897480568 0.00040869051282787144 0.0024665379032515408 0.0048245179680346962 0.0062207082514234473 0.007079301873451173
leaf_weight=56 64 47 77 53 82 68 48 56 56 56
leaf_count=56 64 47 77 53 82 68 48 56 56 56
internal_value=0 -0.00494263 -0.000382003 -0.00319903 -0.0118012 0.0046955 0.0057672 0.00647448 0.00702447 0.00742635
internal_weight=0 323 194 130 129 340 272 224 168 112
internal_count=663 323 194 130 129 340 272 224 168 112
is_linear=0
shrinkage=0.0548323


Tree=13
num_leaves=11
num_cat=0
split_feature=2 0 2 0 1 1 2 1 1 2
split_gain=4.66431 1.79777 1.73438 1.32456 0.949279 0.373769 0.381492 0.302671 0.0393922 0.00864787
threshold=0.90449043365781956 1.0000000180025095e-35 -0.4639194031537815 -1.0000000180025095e-35 -0.12078296472406284 0.26375055562193317 -0.4639194031537815 1.0000000180025095e-35 -0.50531648507005877 -0.4639194031537815
decision_type=2 2 2 2 2 2 2 2 2 2
left_child=1 5 7 -2 -4 8 -7 -3 9 -1
right_child=3 2 4 -5 -6 6 -8 -9 -10 -11
leaf_value=0.0069521350444535415 -0.0021312779647988762 0.0064037916551497572 -0.00091336134943923906 -0.012551082889909681 -0.011511169045835138 0.0059037846658525506 -0.00013047839963344123 0.00041961651059461405 0.0057870237432344441 0.0079334523191282157
leaf_weight=54 61 54 48 92 54 63 63 48 72 54
leaf_count=54 61 54 48 92 54 63 63 48 72 54
internal_value=0 0.00251903 -0.00146813 -0.00839678 -0.00652397 0.00517714 0.00288665 0.00358771 0.00678049 0.00744279
internal_weight=0 510 204 153 102 306 126 102 180 108
internal_count=663 510 204 153 102 306 126 102 180 108
is_linear=0
shrinkage=0.0548323


Tree=14
num_leaves=11
num_cat=0
split_feature=2 0 0 1 2 0 1 1 1 0
split_gain=4.17941 2.09224 0.87334 1.25592 1.11282 0.775971 0.742045 0.272055 0.192496 0.0169789
threshold=0.4419900856158544 1.0000000180025095e-35 -1.0000000180025095e-35 -0.12078296472406284 -0.4639194031537815 -1.061462183366461 -0.12078296472406284 -0.12078296472406284 -0.88985000541605486 -1.061462183366461
decision_type=2 2 2 2 2 2 2 2 2 2
left_child=2 5 9 8 -5 -2 -7 -3 -4 -1
right_child=1 7 3 4 -6 6 -8 -9 -10 -11
leaf_value=0.0068500777622803512 0.0041454196155167001 -0.0090966690265232297 0.0075060208322981431 0.0016650976075729914 -0.0084968509818409369 0.00057251818021717923 -0.0090773937061138545 -0.01496817486973636 0.0031137675709229707 0.0057541129609864463
leaf_weight=85 47 46 60 81 54 46 50 49 60 85
leaf_count=85 47 46 60 81 54 46 50 49 60 85
internal_value=0 -0.00581759 0.00325785 0.00122835 -0.00239968 -0.00162727 -0.00445348 -0.0121251 0.00530989 0.0063021
internal_weight=0 238 425 255 135 143 96 95 120 170
internal_count=663 238 425 255 135 143 96 95 120 170
is_linear=0
shrinkage=0.0548323


Tree=15
num_leaves=10
num_cat=0
split_feature=2 0 2 0 1 1 1 1 1
split_gain=3.84013 1.48018 1.3972 1.064 0.747567 0.313702 0.25367 0.0817719 0.0109264
threshold=0.90449043365781956 1.0000000180025095e-35 -0.4639194031537815 -1.0000000180025095e-35 -0.12078296472406284 0.8405508361409274 1.0000000180025095e-35 -0.12078296472406284 -1.0821167655890529
decision_type=2 2 2 2 2 2 2 2 2
left_child=1 5 6 -2 -4 7 -3 8 -1
right_child=3 2 4 -5 -6 -7 -8 -9 -10
leaf_value=0.0070984097630206744 -0.0020033695501883446 0.0057837090999957918 -0.00089111831701017905 -0.011342230771619022 -0.010295803640565822 0.001532574270745646 0.00030530672775380544 0.0043748882399545609 0.0061118157336963108
leaf_weight=54 61 54 48 92 54 72 48 90 90
leaf_count=54 61 54 48 92 54 72 48 90 90
internal_value=0 0.00228567 -0.00133222 -0.00761889 -0.00587007 0.00469759 0.00320564 0.00567144 0.00648179
internal_weight=0 510 204 153 102 306 102 234 144
internal_count=663 510 204 153 102 306 102 234 144
is_linear=0
shrinkage=0.0548323


Tree=16
num_leaves=12
num_cat=0
split_feature=2 0 1 2 0 0 1 1 2 1 0
split_gain=3.43455 2.2649 1.23798 0.464837 0.383151 0.314229 0.282622 0.147775 0.0468661 0.0631861 0.00532922
threshold=1.0000000180025095e-35 -1.0000000180025095e-35 -0.88985000541605486 0.90449043365781956 1.0614621833664615 1.0614621833664615 0.26375055562193317 1.0328175963139254 -0.87529438408746063 -0.31304972489706084 -1.0000000180025095e-35
decision_type=2 2 2 2 2 2 2 2 2 2 2
left_child=4 3 -3 -2 7 6 -4 8 10 -10 -1
right_child=1 2 5 -5 -6 -7 -8 -9 9 -11 -12
leaf_value=0.0057734664066364082 0.0046991681032493094 -4.6761619322845275e-05 -0.0053600075799874504 -0.0018935202312831212 0.00016520636931183582 -0.013910768829116819 -0.011234093747539137 0.0020060164777306283 0.0058678296622895077 0.0032630663667781818 0.0065299321528024968
leaf_weight=56 68 47 46 61 68 48 53 48 56 56 56
leaf_count=56 68 47 46 61 68 48 53 48 56 56 56
internal_value=0 -0.00404905 -0.00779321 0.0015817 0.0038466 -0.01027 -0.00850472 0.00476695 0.00535857 0.00456545 0.0061517
internal_weight=0 323 194 129 340 147 99 272 224 112 112
internal_count=663 323 194 129 340 147 99 272 224 112 112
is_linear=0
shrinkage=0.0548323


Tree=17
num_leaves=11
num_cat=0
split_feature=2 0 2 0 1 1 1 1 2 1
split_gain=3.15581 1.20715 1.12846 0.883492 0.625925 0.262043 0.221927 0.0497176 0.0102565 3.43314e-06
threshold=0.90449043365781956 1.0000000180025095e-35 -0.4639194031537815 -1.0000000180025095e-35 -0.12078296472406284 0.64828407596792947 1.0000000180025095e-35 -0.12078296472406284 1.0000000180025095e-35 -0.88985000541605486
decision_type=2 2 2 2 2 2 2 2 2 2
left_child=1 5 6 -2 -4 7 -3 8 9 -1
right_child=3 2 4 -5 -6 -7 -8 -9 -10 -11
leaf_value=0.005536568440841585 -0.0017896941195411134 0.0052943605657729256 -0.00071745007116009475 -0.010299600075628294 -0.0093230362252088011 0.0017643600168462841 0.00017018108694621359 0.0041094568317472015 0.0065285967245665372 0.0055573069013594087
leaf_weight=48 61 54 48 92 54 90 48 72 48 48
leaf_count=48 61 54 48 92 54 90 48 72 48 48
internal_value=0 0.00207203 -0.00119518 -0.00690676 -0.00527335 0.00425017 0.00288298 0.00528592 0.00587416 0.00554694
internal_weight=0 510 204 153 102 306 102 216 144 96
internal_count=663 510 204 153 102 306 102 216 144 96
is_linear=0
shrinkage=0.0548323


Tree=18
num_leaves=11
num_cat=0
split_feature=2 0 2 0 1 1 1 1 2 1
split_gain=2.81922 1.0784 1.0081 0.78926 0.559165 0.237099 0.198257 0.0589953 0.00916254 3.06696e-06
threshold=0.90449043365781956 1.0000000180025095e-35 -0.4639194031537815 -1.0000000180025095e-35 -0.12078296472406284 0.8405508361409274 1.0000000180025095e-35 -0.12078296472406284 1.0000000180025095e-35 -0.88985000541605486
decision_type=2 2 2 2 2 2 2 2 2 2
left_child=1 5 6 -2 -4 7 -3 8 9 -1
right_child=3 2 4 -5 -6 -7 -8 -9 -10 -11
leaf_value=0.0052329855703349406 -0.0016915610093947088 0.0050040584002627739 -0.00067811054970212269 -0.0097348491101824069 -0.0088118326708642135 0.0012655393828451913 0.00016084965401555411 0.0037624851158751097 0.0061706185815668104 0.0052525868717953556
leaf_weight=48 61 54 48 92 54 72 48 90 48 48
leaf_count=48 61 54 48 92 54 72 48 90 48 48
internal_value=0 0.00195841 -0.00112965 -0.00652805 -0.0049842 0.00401712 0.0027249 0.00486376 0.00555206 0.00524279
internal_weight=0 510 204 153 102 306 102 234 144 96
internal_count=663 510 204 153 102 306 102 234 144 96
is_linear=0
shrinkage=0.0548323


Tree=19
num_leaves=11
num_cat=0
split_feature=2 0 0 1 1 0 1 2 0 0
split_gain=2.58565 1.69109 0.687233 0.913999 0.430926 0.302562 0.104814 0.0362125 0.0504831 0.00563252
threshold=1.0000000180025095e-35 1.0000000180025095e-35 -1.061462183366461 1.0000000180025095e-35 -0.50531648507005877 1.0614621833664615 1.0328175963139254 -0.87529438408746063 -1.0000000180025095e-35 -1.0000000180025095e-35
decision_type=2 2 2 2 2 2 2 2 2 2
left_child=5 2 -2 -4 -3 6 7 9 -9 -1
right_child=1 4 3 -5 -6 -7 -8 8 -10 -11
leaf_value=0.004961983970195225 0.0043733346869947688 -0.0041926573073537707 0.001755170095831274 -0.007457628697764976 -0.010777977935522409 6.6139036033185304e-05 0.0018301647745055704 0.0051206082934581801 0.0027923529885459288 0.0057396782932195491
leaf_weight=56 64 47 69 61 82 68 48 56 56 56
leaf_count=56 64 47 69 61 82 68 48 56 56 56
internal_value=0 -0.0035132 -0.000277913 -0.00256776 -0.00837868 0.00333754 0.00415539 0.00465366 0.00395648 0.00535083
internal_weight=0 323 194 130 129 340 272 224 112 112
internal_count=663 323 194 130 129 340 272 224 112 112
is_linear=0
shrinkage=0.0548323


Tree=20
num_leaves=11
num_cat=0
split_feature=2 0 1 2 0 1 1 0 1 1
split_gain=2.36496 0.906254 1.07192 1.12631 0.638609 0.219237 0.11919 0.0431107 0.0525852 0.0171155
threshold=0.90449043365781956 -1.0000000180025095e-35 -0.69758324524305682 -0.4639194031537815 1.0000000180025095e-35 0.45601731579493127 0.45601731579493127 -1.061462183366461 1.0000000180025095e-35 1.0000000180025095e-35
decision_type=2 2 2 2 2 2 2 2 2 2
left_child=1 7 -3 6 -2 -5 -4 9 -9 -1
right_child=4 2 3 5 -6 -7 -8 8 -10 -11
leaf_value=0.0047520348614811889 -0.0030944715375758182 0.0049340831550653726 0.0035926518988547342 -0.0036773911322760073 -0.010329513606044352 -0.0086183574920996025 -5.0474130427787702e-05 0.0050012849589568375 0.0025069724432016673 0.0061750649739973247
leaf_weight=54 92 90 54 54 61 54 54 54 48 48
leaf_count=54 92 90 54 54 61 54 54 54 48 48
internal_value=0 0.00179371 -9.35469e-05 -0.00218839 -0.00597903 -0.00614787 0.00177109 0.00462459 0.00382749 0.0054217
internal_weight=0 510 306 216 153 108 108 204 102 102
internal_count=663 510 306 216 153 108 108 204 102 102
is_linear=0
shrinkage=0.0548323


Tree=21
num_leaves=10
num_cat=0
split_feature=2 0 1 0 0 1 1 0 0
split_gain=2.12027 1.16054 0.737001 0.491745 0.261764 0.219694 0.0697922 0.136455 0.0172299
threshold=0.4419900856158544 -1.061462183366461 -0.88985000541605486 1.0614621833664615 1.0000000180025095e-35 1.0328175963139254 -0.50531648507005877 -1.0000000180025095e-35 -1.0000000180025095e-35
decision_type=2 2 2 2 2 2 2 2 2
left_child=3 -2 -3 5 -4 6 8 -8 -1
right_child=1 2 4 -5 -6 -7 7 -9 -10
leaf_value=0.0042407945767915243 0.003575111435540334 -8.1089343562357595e-05 -0.0056510983903822302 -0.0014098496782672537 -0.010326731204156689 0.00024201466632787136 0.0047498077184932918 0.0015472141427127013 0.0055548603501477684
leaf_weight=60 47 47 72 85 72 60 80 80 60
leaf_count=60 47 47 72 85 72 60 80 80 60
internal_value=0 -0.00414363 -0.00604301 0.00232043 -0.00798891 0.00325301 0.00389822 0.00314851 0.00489783
internal_weight=0 238 191 425 144 340 280 160 120
internal_count=663 238 191 425 144 340 280 160 120
is_linear=0
shrinkage=0.0548323


Tree=22
num_leaves=11
num_cat=0
split_feature=2 0 1 2 0 0 1 0 1 1
split_gain=1.94721 0.749499 0.905586 0.978093 0.530798 0.309787 0.250671 0.0349035 0.0436748 0.0167258
threshold=0.90449043365781956 -1.0000000180025095e-35 -0.69758324524305682 -0.87529438408746063 -1.0000000180025095e-35 1.0614621833664615 0.45601731579493127 -1.061462183366461 1.0000000180025095e-35 1.0000000180025095e-35
decision_type=2 2 2 2 2 2 2 2 2 2
left_child=1 7 -3 -4 -2 6 -5 9 -9 -1
right_child=4 2 3 5 -6 -7 -8 8 -10 -11
leaf_value=0.0042572677543870601 -0.0014590293277775117 0.0045324140938735272 0.003203968789642928 -2.29786834470788e-05 -0.0080551438132093305 -0.0082199074950262147 -0.0056267865445125938 0.0045545432065620022 0.0022813587875249097 0.0056640055869841572
leaf_weight=54 61 90 72 48 92 48 48 54 48 48
leaf_count=54 61 90 72 48 92 48 48 54 48 48
internal_value=0 0.0016276 -8.8697e-05 -0.00201416 -0.00542532 -0.00462322 -0.00282488 0.00420204 0.00348481 0.00491926
internal_weight=0 510 306 216 153 144 96 204 102 102
internal_count=663 510 306 216 153 144 96 204 102 102
is_linear=0
shrinkage=0.0548323


Tree=23
num_leaves=10
num_cat=0
split_feature=2 0 1 1 2 0 0 1 1
split_gain=1.77262 1.18262 0.561158 0.291261 0.208092 0.201715 0.0671634 0.224998 0.0239262
threshold=1.0000000180025095e-35 1.0000000180025095e-35 0.26375055562193317 -0.50531648507005877 0.90449043365781956 1.0614621833664615 -1.0000000180025095e-35 0.45601731579493127 0.45601731579493127
decision_type=2 2 2 2 2 2 2 2 2
left_child=5 2 4 -3 -2 6 8 -8 -1
right_child=1 3 -4 -5 -6 -7 7 -9 -10
leaf_value=0.0037557075512496176 0.0044895251410653585 -0.0035362057795157585 -0.0037237003551393749 -0.0089501911827913685 -0.00020232073484335094 9.2297425608786428e-05 0.0042167525544581728 -0.00045020350267686182 0.0052775884936083102
leaf_weight=88 60 47 80 82 54 68 88 48 48
leaf_count=88 60 47 80 82 54 68 88 48 48
internal_value=0 -0.00290888 -0.00020335 -0.00697765 0.00226707 0.00276343 0.00343122 0.00256959 0.00429284
internal_weight=0 323 194 129 114 340 272 136 136
internal_count=663 323 194 129 114 340 272 136 136
is_linear=0
shrinkage=0.0548323


Tree=24
num_leaves=11
num_cat=0
split_feature=2 0 1 2 0 0 1 0 1 1
split_gain=1.60279 0.60752 0.771136 0.828693 0.445431 0.259496 0.204574 0.0311808 0.0358292 0.0170242
threshold=0.90449043365781956 -1.0000000180025095e-35 -0.69758324524305682 -0.87529438408746063 -1.0000000180025095e-35 1.0614621833664615 0.45601731579493127 -1.061462183366461 1.0000000180025095e-35 1.0000000180025095e-35
decision_type=2 2 2 2 2 2 2 2 2 2
left_child=1 7 -3 -4 -2 6 -5 9 -9 -1
right_child=4 2 3 5 -6 -7 -8 8 -10 -11
leaf_value=0.0038044854046362631 -0.0012888002087474454 0.0041957409121028029 0.0029577579259952762 -6.9783335424258836e-05 -0.0073312599635473354 -0.0075387105970151705 -0.0051321792546758565 0.0040854605944295724 0.0020265481147116932 0.0052237165950201449
leaf_weight=54 61 90 72 48 92 48 48 54 48 48
leaf_count=54 61 90 72 48 92 48 48 54 48 48
internal_value=0 0.00147665 -6.85525e-05 -0.00184534 -0.00492217 -0.00424689 -0.00260098 0.00379446 0.00311656 0.00447236
internal_weight=0 510 306 216 153 144 96 204 102 102
internal_count=663 510 306 216 153 144 96 204 102 102
is_linear=0
shrinkage=0.0548323


Tree=25
num_leaves=11
num_cat=0
split_feature=2 0 1 1 0 0 1 2 1 0
split_gain=1.45431 1.0537 0.895913 0.295244 0.318026 0.162142 0.0574688 0.0216094 0.0232371 0.00900697
threshold=1.0000000180025095e-35 -1.061462183366461 -0.88985000541605486 0.8405508361409274 1.0000000180025095e-35 1.0614621833664615 1.0328175963139254 -0.87529438408746063 -0.31304972489706084 -1.0000000180025095e-35
decision_type=2 2 2 2 2 2 2 2 2 2
left_child=5 -2 -3 4 -4 6 7 9 -9 -1
right_child=1 2 3 -5 -6 -7 -8 8 -10 -11
leaf_value=0.0035175496284113824 0.0036654084266694565 0.0014966348404116077 -0.0020007519883914059 -0.0092628573784067879 -0.0072845860658665978 0.00010822443705477696 0.0013800048248369804 0.003721950874684144 0.0021423454680301181 0.0045009877668111663
leaf_weight=56 64 63 69 59 68 68 48 56 56 56
leaf_count=56 64 63 69 59 68 68 48 56 56 56
internal_value=0 -0.00263479 -0.0041916 -0.00601996 -0.00462338 0.00250305 0.00310176 0.00347071 0.00293215 0.00400927
internal_weight=0 323 259 196 137 340 272 224 112 112
internal_count=663 323 259 196 137 340 272 224 112 112
is_linear=0
shrinkage=0.0548323


Tree=26
num_leaves=11
num_cat=0
split_feature=2 0 2 0 1 1 2 0 2 1
split_gain=1.34648 0.510264 0.384239 0.366355 0.263662 0.0932928 0.129911 0.245417 0.0217359 7.00923e-05
threshold=0.90449043365781956 1.0614621833664615 -0.4639194031537815 1.0000000180025095e-35 1.0328175963139254 -0.88985000541605486 -0.4639194031537815 -1.0000000180025095e-35 -0.4639194031537815 0.26375055562193317
decision_type=2 2 2 2 2 2 2 2 2 2
left_child=1 4 -3 -2 5 8 9 -8 -1 -7
right_child=3 2 -4 -5 -6 6 7 -9 -10 -11
leaf_value=0.0034854676001038402 -0.0023266750829580053 0.0012500507085374173 -0.0054807559213172754 -0.0078066029765925353 -0.00079051206007628699 0.0035979649484360028 0.0034920150696257759 -0.0014673749426119701 0.0051356055690825733 0.0035124237149776168
leaf_weight=48 92 51 51 61 72 72 60 60 48 48
leaf_count=48 92 51 51 61 72 72 60 60 48 48
internal_value=0 0.00135344 -0.00211535 -0.00451148 0.00222064 0.00286589 0.00228803 0.00101232 0.00431054 0.00356375
internal_weight=0 510 102 153 408 336 240 120 96 120
internal_count=663 510 102 153 408 336 240 120 96 120
is_linear=0
shrinkage=0.0548323


Tree=27
num_leaves=11
num_cat=0
split_feature=2 0 1 2 0 1 2 0 2 1
split_gain=1.20287 0.467076 0.637331 0.417235 0.333624 0.265779 0.275825 0.0228922 0.0271498 0.0188329
threshold=0.90449043365781956 -1.0000000180025095e-35 0.26375055562193317 -0.4639194031537815 -1.0000000180025095e-35 -1.0821167655890529 -0.4639194031537815 -1.061462183366461 -0.4639194031537815 1.0000000180025095e-35
decision_type=2 2 2 2 2 2 2 2 2 2
left_child=1 7 5 -4 -2 -3 -7 9 -9 -1
right_child=4 2 3 -5 -6 6 -8 8 -10 -11
leaf_value=0.0031899423210571204 -0.0011196302630780545 0.0052364926526512201 8.8711243237448573e-05 -0.0062219030144921045 -0.0063490331773141543 0.0032041543782759777 -0.0019267971363415889 0.0036252762902477201 0.0018361132710361916 0.0046826610834212598
leaf_weight=54 61 54 63 63 92 63 63 51 51 48
leaf_count=54 61 54 63 63 92 63 63 51 51 48
internal_value=0 0.00127923 -7.56437e-05 -0.0030666 -0.00426411 0.00201802 0.000638679 0.00331155 0.00273069 0.0038924
internal_weight=0 510 306 126 153 180 126 204 102 102
internal_count=663 510 306 126 153 180 126 204 102 102
is_linear=0
shrinkage=0.0548323


Tree=28
num_leaves=11
num_cat=0
split_feature=2 0 2 0 1 1 2 0 1 0
split_gain=1.07457 0.435416 0.315946 0.303695 0.223908 0.0746776 0.115146 0.186796 0.0173838 0.000486697
threshold=0.90449043365781956 1.0614621833664615 -0.4639194031537815 1.0000000180025095e-35 1.0328175963139254 -0.50531648507005877 -0.4639194031537815 -1.0000000180025095e-35 -1.0821167655890529 -1.0000000180025095e-35
decision_type=2 2 2 2 2 2 2 2 2 2
left_child=1 4 -3 -2 5 8 9 -8 -1 -7
right_child=3 2 -4 -5 -6 6 7 -9 -10 -11
leaf_value=0.0041511542189225552 -0.0020410872084393266 0.0010564913370909453 -0.0050469217856067674 -0.0070304165787105936 -0.00076471509210078036 0.0033631062589808552 0.0029727653602019673 -0.0018646632541073484 0.0029462351595566467 0.0031161840559956197
leaf_weight=72 92 51 51 61 72 48 48 48 72 48
leaf_count=72 92 51 51 61 72 48 48 48 72 48
internal_value=0 0.00120909 -0.00199522 -0.0040303 0.00201017 0.00260478 0.00189685 0.000554051 0.00354869 0.00323965
internal_weight=0 510 102 153 408 336 192 96 144 96
internal_count=663 510 102 153 408 336 192 96 144 96
is_linear=0
shrinkage=0.0548323


Tree=29
num_leaves=11
num_cat=0
split_feature=2 0 1 1 0 2 0 0 1 1
split_gain=0.975732 0.798942 0.729715 0.213961 0.16698 0.1162 0.199515 0.0614783 0.145913 0.0184561
threshold=1.0000000180025095e-35 -1.061462183366461 -0.69758324524305682 0.8405508361409274 1.0000000180025095e-35 -1.2347626429937713 1.0614621833664615 -1.0000000180025095e-35 1.0000000180025095e-35 1.0000000180025095e-35
decision_type=2 2 2 2 2 2 2 2 2 2
left_child=5 -2 -3 4 -4 -1 7 9 -9 -7
right_child=1 2 3 -5 -6 6 -8 8 -10 -11
leaf_value=0.0038059960065986902 0.0033278056195963708 0.0008794872505842893 -0.002101665362976336 -0.0081491978662469634 -0.0061756683915707086 0.0024883659059325852 -0.0016024978198337576 0.0032352679992941145 -0.00091968331113619257 0.0039660752029080501
leaf_weight=85 64 79 61 59 60 54 51 54 48 48
leaf_count=85 64 79 61 59 60 54 51 54 48 48
internal_value=0 -0.00215816 -0.00351376 -0.00544191 -0.00412183 0.00205025 0.001465 0.00223188 0.00128 0.00318376
internal_weight=0 323 259 180 121 340 255 204 102 102
internal_count=663 323 259 180 121 340 255 204 102 102
is_linear=0
shrinkage=0.0548323


Tree=30
num_leaves=12
num_cat=0
split_feature=2 0 1 2 0 0 1 1 2 2 1
split_gain=0.903072 0.3586 0.449235 0.468151 0.250188 0.113982 0.0793353 0.0220014 0.0358459 0.0242888 0.000805078
threshold=0.90449043365781956 1.0000000180025095e-35 -0.88985000541605486 -0.87529438408746063 -1.0000000180025095e-35 1.0614621833664615 1.0328175963139254 -0.12078296472406284 -0.4639194031537815 1.0000000180025095e-35 -0.88985000541605486
decision_type=2 2 2 2 2 2 2 2 2 2 2
left_child=1 6 -3 -4 -2 -5 7 9 -9 10 -1
right_child=4 2 3 5 -6 -7 -8 8 -10 -11 -12
leaf_value=0.0024856415404350307 -0.00097167750104214441 0.0039664062808281459 0.0021483402732156531 -0.0024083702369902837 -0.0055001989433514659 -0.006038886651723893 0.00038830578743239243 0.0031116266358713804 0.00111372446565466 0.0041550834767909535 0.0028032192277653513
leaf_weight=48 61 48 52 52 92 52 54 54 54 48 48
leaf_count=48 61 48 52 52 92 52 54 54 54 48 48
internal_value=0 0.00110841 -0.000672334 -0.00209964 -0.00369471 -0.00422363 0.00229558 0.00270428 0.00211268 0.00314798 0.00264443
internal_weight=0 510 204 156 153 104 306 252 108 144 96
internal_count=663 510 204 156 153 104 306 252 108 144 96
is_linear=0
shrinkage=0.0548323


Tree=31
num_leaves=10
num_cat=0
split_feature=2 0 1 2 1 2 0 1 2
split_gain=0.837919 0.477506 0.473915 0.517896 0.164238 0.256523 0.110802 0.0260472 0.0456399
threshold=1.4246324302383302 1.0000000180025095e-35 -0.88985000541605486 -0.87529438408746063 0.45601731579493127 1.0000000180025095e-35 1.0614621833664615 -0.50531648507005877 1.0000000180025095e-35
decision_type=2 2 2 2 2 2 2 2 2
left_child=1 4 -3 -4 7 -6 -5 8 -1
right_child=-2 2 3 6 5 -7 -8 -9 -10
leaf_value=0.0024335963528993726 -0.0057193864337366004 0.0031740240618955756 0.002030541815242707 -0.0028433567133281526 0.0024869355370091273 -0.002512512817455083 -0.0060449746212686596 0.0021649505874105045 0.0045423745499337713
leaf_weight=72 69 56 52 65 72 54 65 104 54
leaf_count=72 69 56 52 65 72 54 65 104 54
internal_value=0 0.000664373 -0.00123701 -0.00259425 0.00193552 0.000344315 -0.00444417 0.00280723 0.00333736
internal_weight=0 594 238 182 356 126 130 230 126
internal_count=663 594 238 182 356 126 130 230 126
is_linear=0
shrinkage=0.0548323


Tree=32
num_leaves=10
num_cat=0
split_feature=2 0 1 1 0 1 1 2 0
split_gain=0.749781 0.574397 0.392632 0.190542 0.41012 0.120028 0.0674037 0.0772983 0.145708
threshold=0.4419900856158544 -1.061462183366461 -0.88985000541605486 0.64828407596792947 -1.0000000180025095e-35 0.45601731579493127 -1.0821167655890529 -0.87529438408746063 1.0000000180025095e-35
decision_type=2 2 2 2 2 2 2 2 2
left_child=3 -2 -3 6 -5 -4 -1 -8 -9
right_child=1 2 5 4 -6 -7 7 8 -10
leaf_value=0.0035528789727180001 0.0029662050866134464 0.00055124368707310249 -0.0037846650273252276 0.0034278945335225342 -0.0029831855218661473 -0.0069658520106991159 0.0028995196982804288 0.0022958083964015044 -0.0013812993659734741
leaf_weight=75 47 47 79 50 75 65 90 81 54
leaf_count=75 47 47 79 50 75 65 90 81 54
internal_value=0 -0.00246407 -0.00380032 0.00137988 -0.000418753 -0.00522062 0.00212931 0.00165479 0.000824965
internal_weight=0 238 191 425 125 144 300 225 135
internal_count=663 238 191 425 125 144 300 225 135
is_linear=0
shrinkage=0.0548323


Tree=33
num_leaves=11
num_cat=0
split_feature=2 0 1 2 1 1 2 0 1 2
split_gain=0.713229 0.392803 0.546846 0.580644 0.17375 0.0734533 0.0632636 0.057384 0.0776419 0.0159099
threshold=1.4246324302383302 -1.0000000180025095e-35 -1.0821167655890529 -0.4639194031537815 0.45601731579493127 0.45601731579493127 0.4419900856158544 -1.061462183366461 0.26375055562193317 1.0000000180025095e-35
decision_type=2 2 2 2 2 2 2 2 2 2
left_child=1 7 -3 5 6 -4 -5 9 -9 -1
right_child=-2 2 3 4 -6 -7 -8 8 -10 -11
leaf_value=0.0026398156718497419 -0.0052767070373007131 0.0040945957078982039 0.0024202312906379565 -0.0007168043235165789 -0.0056882940693626736 -0.00025501862972027932 -0.0035469300218820515 0.0026578660081616181 -0.00018797880151408361 0.0039209798822400143
leaf_weight=68 69 63 72 48 72 54 47 70 49 51
leaf_count=68 69 63 72 48 72 54 47 70 49 51
internal_value=0 0.000612951 -0.000539956 -0.00153646 -0.0036567 0.0012737 -0.00211697 0.00233747 0.00148605 0.00318889
internal_weight=0 594 356 293 167 126 95 238 119 119
internal_count=663 594 356 293 167 126 95 238 119 119
is_linear=0
shrinkage=0.0548323


Tree=34
num_leaves=10
num_cat=0
split_feature=2 0 2 1 1 2 1 2 0
split_gain=0.637157 0.368299 0.271508 0.245291 0.113971 0.180388 0.0349653 0.0292396 0.00579891
threshold=1.4246324302383302 1.0614621833664615 1.0000000180025095e-35 1.3212177365734226 -0.12078296472406284 1.0000000180025095e-35 -1.2743835257620508 -0.87529438408746063 -1.0000000180025095e-35
decision_type=2 2 2 2 2 2 2 2 2
left_child=1 3 -3 4 6 7 -1 -6 -8
right_child=-2 2 -4 -5 5 -7 8 -9 -10
leaf_value=0.0037517601863878117 -0.0049873728938566791 0.0001197340088952749 -0.0051727811150022807 -0.0021456130721876718 0.0030802158905921823 -0.0011671422424540396 0.0024896700348865405 0.0013082990420730863 0.0018434367353248392
leaf_weight=56 69 68 51 56 56 84 84 56 83
leaf_count=56 69 68 51 56 56 84 84 56 83
internal_value=0 0.000579341 -0.00214849 0.00126273 0.00171826 0.000753658 0.00256608 0.00219426 0.00216849
internal_weight=0 594 119 475 419 196 223 112 167
internal_count=663 594 119 475 419 196 223 112 167
is_linear=0
shrinkage=0.0548323


Tree=35
num_leaves=10
num_cat=0
split_feature=2 0 2 1 1 1 2 1 2
split_gain=0.569199 0.336214 0.348787 0.156397 0.128594 0.104949 0.195251 0.016629 0.0456623
threshold=1.4246324302383302 1.0000000180025095e-35 1.0000000180025095e-35 -0.50531648507005877 1.0000000180025095e-35 0.45601731579493127 1.0000000180025095e-35 -0.50531648507005877 1.0000000180025095e-35
decision_type=2 2 2 2 2 2 2 2 2
left_child=1 5 3 -3 -4 7 -7 8 -1
right_child=-2 2 4 -5 -6 6 -8 -9 -10
leaf_value=0.001830626395087838 -0.0047139037445671798 0.0032876477035310441 -0.0016361236227354779 -0.0006033222371383337 -0.0055367124390149668 0.0022115272590377552 -0.00215016801728428 0.0017978431494442128 0.003939922618103474
leaf_weight=72 69 48 54 88 48 72 54 104 54
leaf_count=72 69 48 54 88 48 72 54 104 54
internal_value=0 0.000547575 -0.00104789 0.000769961 -0.00347169 0.00161421 0.000342229 0.00231103 0.00273461
internal_weight=0 594 238 136 102 356 126 230 126
internal_count=663 594 238 136 102 356 126 230 126
is_linear=0
shrinkage=0.0548323


Tree=36
num_leaves=13
num_cat=0
split_feature=2 0 1 2 1 2 1 0 2 2 0 0
split_gain=0.509903 0.217813 0.18792 0.165103 0.128651 0.0559902 0.0309504 0.0848122 0.12727 0.0110982 0.0150981 0.00725655
threshold=0.90449043365781956 1.0614621833664615 -0.69758324524305682 -0.4639194031537815 1.3212177365734226 1.4246324302383302 -0.31304972489706084 -1.0000000180025095e-35 -0.4639194031537815 1.0000000180025095e-35 -1.0000000180025095e-35 -1.061462183366461
decision_type=2 2 2 2 2 2 2 2 2 2 2 2
left_child=1 4 -2 -3 6 -4 9 11 -9 10 -1 -8
right_child=2 3 5 -5 -6 -7 7 8 -10 -11 -12 -13
leaf_value=0.0013467553651745298 6.5898986399495042e-05 0.00077259666608699097 -0.0029575340745937127 -0.0036394936023089893 -0.001267052074519554 -0.0055095449355876932 0.0029085773901991545 0.002123470634076884 -0.0018694869805372016 0.0029287865904771082 0.0026200190749761793 0.0019551316486389235
leaf_weight=56 48 51 59 51 48 46 48 48 48 56 56 48
leaf_count=56 48 51 59 51 48 46 48 48 48 56 56 48
internal_value=0 0.000832883 -0.00277628 -0.00143345 0.00139947 -0.00407556 0.001755 0.00127942 0.000126992 0.00229852 0.00198339 0.00243185
internal_weight=0 510 153 102 408 105 360 192 96 168 112 96
internal_count=663 510 153 102 408 105 360 192 96 168 112 96
is_linear=0
shrinkage=0.0548323


Tree=37
num_leaves=10
num_cat=0
split_feature=2 1 0 2 1 2 0 1 1
split_gain=0.46382 0.295569 0.420358 0.436928 0.171584 0.0821997 0.0701031 0.0383951 0.0163918
threshold=1.4246324302383302 -1.0821167655890529 -1.0000000180025095e-35 -0.87529438408746063 0.45601731579493127 0.4419900856158544 -1.061462183366461 0.26375055562193317 0.26375055562193317
decision_type=2 2 2 2 2 2 2 2 2
left_child=1 -1 6 -4 5 -5 8 -8 -3
right_child=-2 2 3 4 -6 -7 7 -9 -10
leaf_value=0.0031338612064723027 -0.0042552331816006093 0.0022209755861794826 0.0019525952245141459 -0.00019908510427797679 -0.0045363059404559545 -0.0031471027379551203 0.0019414607680625475 -0.00022919654855271687 0.0036392735059693391
leaf_weight=105 69 49 84 72 90 47 49 49 49
leaf_count=105 69 49 84 72 90 47 49 49 49
internal_value=0 0.000494295 -7.24833e-05 -0.00138736 -0.00272974 -0.00136343 0.00189313 0.000856132 0.00293012
internal_weight=0 594 489 293 209 119 196 98 98
internal_count=663 594 489 293 209 119 196 98 98
is_linear=0
shrinkage=0.0548323


Tree=38
num_leaves=11
num_cat=0
split_feature=2 0 1 1 0 2 0 0 1 1
split_gain=0.416955 0.466715 0.43112 0.17475 0.157403 0.0733748 0.105777 0.0279185 0.0760349 0.0223581
threshold=1.0000000180025095e-35 -1.061462183366461 -1.0821167655890529 0.8405508361409274 1.0000000180025095e-35 -1.2347626429937713 1.0614621833664615 -1.0000000180025095e-35 1.0000000180025095e-35 1.0000000180025095e-35
decision_type=2 2 2 2 2 2 2 2 2 2
left_child=5 -2 -3 4 -4 -1 7 9 -9 -7
right_child=1 2 3 -5 -6 6 -8 8 -10 -11
leaf_value=0.0027354352349020345 0.0027821742929783635 0.0022434745278782256 -0.00078933627774474286 -0.0060466861561276949 -0.004318641481529854 0.0013096479505007464 -0.0013583384794128991 0.0022035700164759406 -0.00079577096475255205 0.0029360845532062276
leaf_weight=85 64 48 77 59 75 54 51 54 48 48
leaf_count=85 64 48 77 59 75 54 51 54 48 48
internal_value=0 -0.00141079 -0.00244689 -0.00351389 -0.00253077 0.00134025 0.00087519 0.00143357 0.000792115 0.00207503
internal_weight=0 323 259 211 152 340 255 204 102 102
internal_count=663 323 259 211 152 340 255 204 102 102
is_linear=0
shrinkage=0.0548323


Tree=39
num_leaves=10
num_cat=0
split_feature=2 0 2 1 1 2 1 2 0
split_gain=0.400966 0.244444 0.1791 0.173676 0.0675658 0.1088 0.0232113 0.0195835 0.00237237
threshold=1.4246324302383302 1.0614621833664615 1.0000000180025095e-35 1.3212177365734226 -0.12078296472406284 1.0000000180025095e-35 -1.2743835257620508 -0.87529438408746063 -1.0000000180025095e-35
decision_type=2 2 2 2 2 2 2 2 2
left_child=1 3 -3 4 6 7 -1 -6 -8
right_child=-2 2 -4 -5 5 -7 8 -9 -10
leaf_value=0.0030184692464172731 -0.0039564189690138992 7.9484334179718484e-05 -0.0042190263990422774 -0.0018516230366703973 0.0025007968203055535 -0.0008348075993589259 0.001933911927614321 0.0010506803843456612 0.0015205716916923471
leaf_weight=56 69 68 51 56 56 84 84 56 83
leaf_count=56 69 68 51 56 56 84 84 56 83
internal_value=0 0.000459584 -0.00176273 0.00101633 0.00139964 0.000656933 0.00205242 0.00177574 0.00172848
internal_weight=0 594 119 475 419 196 223 112 167
internal_count=663 594 119 475 419 196 223 112 167
is_linear=0
shrinkage=0.0548323


Tree=40
num_leaves=10
num_cat=0
split_feature=2 1 0 2 0 1 0 1 1
split_gain=0.3582 0.230331 0.327164 0.33915 0.143765 0.170064 0.0552396 0.0301802 0.0159051
threshold=1.4246324302383302 -1.0821167655890529 -1.0000000180025095e-35 -0.87529438408746063 1.0614621833664615 0.64828407596792947 -1.061462183366461 0.26375055562193317 0.26375055562193317
decision_type=2 2 2 2 2 2 2 2 2
left_child=1 -1 6 -4 5 -5 8 -8 -3
right_child=-2 2 3 4 -6 -7 7 -9 -10
leaf_value=0.0027645085525893867 -0.0037394793282172164 0.0018901158031352013 0.0017166554371740002 4.9474447889704086e-05 -0.0044351325569540068 -0.0039469387588423575 0.0017098563562590917 -0.00021462779620221226 0.0032871987688579849
leaf_weight=105 69 49 84 89 70 50 49 49 49
leaf_count=105 69 49 84 89 70 50 49 49 49
internal_value=0 0.000434384 -6.59495e-05 -0.00122595 -0.00240863 -0.00138808 0.00166814 0.000747614 0.00258866
internal_weight=0 594 489 293 209 139 196 98 98
internal_count=663 594 489 293 209 139 196 98 98
is_linear=0
shrinkage=0.0548323


Tree=41
num_leaves=11
num_cat=0
split_feature=2 1 1 1 0 2 0 1 2 2
split_gain=0.324365 0.140916 0.137111 0.0757077 0.132293 0.0331644 0.0151878 0.00240038 0.00920156 0.00505981
threshold=0.90449043365781956 1.0328175963139254 -0.69758324524305682 -1.2743835257620508 1.0614621833664615 1.4246324302383302 1.0000000180025095e-35 -0.12078296472406284 -0.4639194031537815 -0.4639194031537815
decision_type=2 2 2 2 2 2 2 2 2 2
left_child=1 3 -2 -1 6 -4 7 9 -9 -5
right_child=2 -3 5 4 -6 -7 -8 8 -10 -11
leaf_value=0.0028894645119865339 0.00021343245531805322 -0.0013046643450282626 -0.0024636576958517323 0.0013485986519247044 -0.0013165841142461449 -0.0044277515228878994 0.00062154705097272991 0.0018644547967919707 0.00085220998872900073 0.0020992218686698622
leaf_weight=60 48 90 59 54 72 46 72 54 54 54
leaf_count=60 48 90 59 54 72 46 72 54 54 54
internal_value=0 0.000664289 -0.0022143 0.00108621 0.000785665 -0.00332412 0.00131123 0.00154112 0.00135833 0.00172391
internal_weight=0 510 153 420 360 105 288 216 108 108
internal_count=663 510 153 420 360 105 288 216 108 108
is_linear=0
shrinkage=0.0548323


Tree=42
num_leaves=11
num_cat=0
split_feature=2 1 0 2 1 0 0 1 1 1
split_gain=0.292033 0.18967 0.282587 0.299299 0.124421 0.13582 0.0493479 0.0407968 0.0248718 0.0157983
threshold=1.4246324302383302 -1.0821167655890529 -1.0000000180025095e-35 -0.87529438408746063 0.8405508361409274 1.0614621833664615 -1.061462183366461 -0.12078296472406284 0.26375055562193317 0.26375055562193317
decision_type=2 2 2 2 2 2 2 2 2 2
left_child=1 -1 6 -4 5 7 9 -5 -8 -3
right_child=-2 2 3 4 -6 -7 8 -9 -10 -11
leaf_value=0.0025066906957853532 -0.0033764800817072697 0.0017236699936426659 0.0016244302597825096 0.00089895452231222557 -0.0043591922882676533 -0.0037314153140075614 0.0015532946047634919 -0.0013273488189999522 -0.00019376203877870526 0.0031160512429062506
leaf_weight=105 69 49 84 49 60 50 49 50 49 49
leaf_count=105 69 49 84 49 60 50 49 50 49 49
internal_value=0 0.000392217 -6.18106e-05 -0.00113989 -0.00225091 -0.00140194 0.00154981 -0.000225441 0.000679766 0.00241986
internal_weight=0 594 489 293 209 149 196 99 98 98
internal_count=663 594 489 293 209 149 196 99 98 98
is_linear=0
shrinkage=0.0548323


Tree=43
num_leaves=11
num_cat=0
split_feature=2 0 1 1 1 2 1 0 0 2
split_gain=0.268175 0.332052 0.187765 0.0780947 0.0614029 0.0412799 0.058694 0.117013 0.0235873 0.0222774
threshold=0.4419900856158544 -1.061462183366461 -0.88985000541605486 1.3212177365734226 0.45601731579493127 -1.2347626429937713 -0.50531648507005877 -1.0000000180025095e-35 -1.0000000180025095e-35 -0.4639194031537815
decision_type=2 2 2 2 2 2 2 2 2 2
left_child=3 -2 -3 5 -4 -1 8 -8 -7 -9
right_child=1 2 4 -5 -6 6 7 9 -10 -11
leaf_value=0.0022472429869494224 0.0026551034501275991 0.00051963010339652733 -0.0024447657348357047 -0.0012103122221099271 -0.0047200830160810557 0.00080681331979290578 0.0018950221450202912 -0.00017119335955594975 0.0023760190169961563 -0.0017462178021665537
leaf_weight=75 47 47 79 50 65 48 72 54 72 54
leaf_count=75 47 47 79 50 65 48 72 54 72 54
internal_value=0 -0.00147365 -0.00248963 0.000825246 -0.00347182 0.00109665 0.000809006 0.000182786 0.00174834 -0.000958706
internal_weight=0 238 191 425 144 375 300 180 120 108
internal_count=663 238 191 425 144 375 300 180 120 108
is_linear=0
shrinkage=0.0548323


Tree=44
num_leaves=11
num_cat=0
split_feature=2 0 2 1 1 2 2 1 0 2
split_gain=0.248484 0.157089 0.128936 0.114712 0.0374443 0.0741692 0.0208712 0.0259591 0.0148856 0.0111838
threshold=1.4246324302383302 1.0614621833664615 1.0000000180025095e-35 1.3212177365734226 -0.12078296472406284 1.0000000180025095e-35 1.0000000180025095e-35 -0.88985000541605486 -1.0000000180025095e-35 -0.87529438408746063
decision_type=2 2 2 2 2 2 2 2 2 2
left_child=1 3 -3 4 6 9 8 -8 -1 -6
right_child=-2 2 -4 -5 5 -7 7 -9 -10 -11
leaf_value=0.00055727624358397872 -0.0031145706314305976 0.00014336002327662836 -0.0035038259370642763 -0.0015227044960581151 0.0020383945050951573 -0.0006649303762355696 0.0031182359457197612 0.0013053372859115496 0.0017398948627943603 0.00094254288217136492
leaf_weight=64 69 68 51 56 56 84 48 47 64 56
leaf_count=64 69 68 51 56 56 84 48 47 64 56
internal_value=0 0.000361794 -0.00141972 0.00080811 0.00111963 0.000566726 0.00160558 0.00222133 0.00114859 0.00149047
internal_weight=0 594 119 475 419 196 223 95 128 112
internal_count=663 594 119 475 419 196 223 95 128 112
is_linear=0
shrinkage=0.0548323


Tree=45
num_leaves=10
num_cat=0
split_feature=2 0 1 1 0 0 1 2 2
split_gain=0.224026 0.117291 0.097405 0.0545164 0.0914882 0.0111068 0.00111144 0.00479675 0.00476014
threshold=0.90449043365781956 1.0000000180025095e-35 1.0328175963139254 -1.2743835257620508 1.0614621833664615 1.0000000180025095e-35 -0.12078296472406284 -0.4639194031537815 -0.4639194031537815
decision_type=2 2 2 2 2 2 2 2 2
left_child=2 -2 3 -1 5 6 7 -5 -8
right_child=1 -3 -4 4 -6 -7 8 -9 -10
leaf_value=0.0024330580459037431 -0.00060399458120593749 -0.0037046728078423382 -0.0010849247116101086 0.0010404196020182847 -0.0011004152153279538 0.00049508252014950614 0.001521111467817053 0.0017712696543417373 0.00079305555585393057
leaf_weight=60 92 61 90 54 72 72 54 54 54
leaf_count=60 92 61 90 54 72 72 54 54 54
internal_value=0 -0.00184021 0.000552064 0.000902847 0.000647812 0.00108487 0.00128146 0.00140584 0.00115708
internal_weight=0 153 510 420 360 288 216 108 108
internal_count=663 153 510 420 360 288 216 108 108
is_linear=0
shrinkage=0.0548323


Tree=46
num_leaves=11
num_cat=0
split_feature=2 0 1 1 0 2 0 0 1 1
split_gain=0.207498 0.307347 0.272787 0.113245 0.0963242 0.0488303 0.0575754 0.0162314 0.0400327 0.0278846
threshold=1.0000000180025095e-35 -1.061462183366461 -1.0821167655890529 0.8405508361409274 1.0000000180025095e-35 -1.2347626429937713 1.0614621833664615 -1.0000000180025095e-35 1.0000000180025095e-35 1.0000000180025095e-35
decision_type=2 2 2 2 2 2 2 2 2 2
left_child=5 -2 -3 4 -4 -1 7 9 -9 -7
right_child=1 2 3 -5 -6 6 -8 8 -10 -11
leaf_value=0.002083630457575624 0.00240735654664651 0.0018949213164568925 -0.00053106643925472413 -0.0047237009264320838 -0.0032919635290896399 0.00061239253802227789 -0.0010817536099745901 0.0015131041340257908 -0.00066323462004446419 0.0024287495713726523
leaf_weight=85 64 48 77 59 75 54 51 54 48 48
leaf_count=85 64 48 77 59 75 54 51 54 48 48
internal_value=0 -0.000995234 -0.00183603 -0.00268478 -0.00189335 0.000945473 0.000566087 0.000978047 0.000488945 0.00146715
internal_weight=0 323 259 211 152 340 255 204 102 102
internal_count=663 323 259 211 152 340 255 204 102 102
is_linear=0
shrinkage=0.0548323


Tree=47
num_leaves=11
num_cat=0
split_feature=2 1 0 2 1 1 2 0 1 1
split_gain=0.200676 0.128464 0.189079 0.213668 0.0780712 0.0416817 0.0369994 0.0299095 0.0201899 0.0181612
threshold=1.4246324302383302 -1.2743835257620508 -1.0000000180025095e-35 -0.4639194031537815 0.45601731579493127 0.45601731579493127 0.4419900856158544 -1.061462183366461 0.26375055562193317 0.26375055562193317
decision_type=2 2 2 2 2 2 2 2 2 2
left_child=1 -1 7 5 6 -4 -5 9 -9 -3
right_child=-2 2 3 4 -6 -7 -8 8 -10 -11
leaf_value=0.0025313576945254577 -0.002798955850940585 0.0012838752687193537 0.0016123144066532388 -0.00011406660747095322 -0.0034595526668937796 -0.00035438067946113021 -0.0021534133121598447 0.0013609009288344733 -0.00016317320416489464 0.0027293534549157963
leaf_weight=70 69 56 81 54 72 54 53 56 49 49
leaf_count=70 69 56 81 54 72 54 53 56 49 49
internal_value=0 0.000325131 3.04063e-05 -0.000821393 -0.00206357 0.000825636 -0.00112421 0.00130405 0.000649666 0.00195843
internal_weight=0 594 524 314 179 135 107 210 105 105
internal_count=663 594 524 314 179 135 107 210 105 105
is_linear=0
shrinkage=0.0548323


Tree=48
num_leaves=10
num_cat=0
split_feature=2 1 0 2 0 1 0 1 1
split_gain=0.179272 0.115347 0.176708 0.195496 0.0877593 0.0992323 0.0309666 0.0156391 0.0143198
threshold=1.4246324302383302 -1.0821167655890529 -1.0000000180025095e-35 -0.87529438408746063 1.0614621833664615 0.64828407596792947 -1.061462183366461 0.26375055562193317 0.26375055562193317
decision_type=2 2 2 2 2 2 2 2 2
left_child=1 -1 6 -4 5 -5 8 -8 -3
right_child=-2 2 3 4 -6 -7 7 -9 -10
leaf_value=0.0019562495510751197 -0.0026454825867826197 0.0012540658384825236 0.001334827579324703 9.826019350131733e-05 -0.0033805237958917148 -0.0029544842706960301 0.0012311226904743575 -0.00015422600949400845 0.0025796967071274957
leaf_weight=105 69 49 84 89 70 50 49 49 49
leaf_count=105 69 49 84 89 70 50 49 49 49
internal_value=0 0.000307304 -4.67646e-05 -0.000899284 -0.0017972 -0.000999849 0.00122766 0.000538448 0.00191688
internal_weight=0 594 489 293 209 139 196 98 98
internal_count=663 594 489 293 209 139 196 98 98
is_linear=0
shrinkage=0.0548323


Tree=49
num_leaves=10
num_cat=0
split_feature=2 1 0 2 0 1 0 1 1
split_gain=0.160151 0.105026 0.152976 0.164638 0.0479184 0.0783236 0.0456073 0.0146522 0.0144749
threshold=1.4246324302383302 -1.2743835257620508 1.0000000180025095e-35 -0.87529438408746063 -1.061462183366461 0.8405508361409274 1.0614621833664615 0.26375055562193317 -0.12078296472406284
decision_type=2 2 2 2 2 2 2 2 2
left_child=1 -1 4 -4 7 8 -5 -3 -6
right_child=-2 2 3 6 5 -7 -8 -9 -10
leaf_value=0.0022852917718222789 -0.0025004246684991113 0.0011399012570950753 0.0013058741843083015 -0.0011365403949298246 0.0014419968633813834 -0.0014445066591247397 -0.0030487607867519971 0.0024382459566110828 0.00037145895532838413
leaf_weight=70 69 56 60 75 83 56 75 49 70
leaf_count=70 69 56 60 75 83 56 75 49 70
internal_value=0 0.000290453 2.39673e-05 -0.00112164 0.00079014 0.000310026 -0.00209265 0.0017458 0.000952208
internal_weight=0 594 524 210 314 209 150 105 153
internal_count=663 594 524 210 314 209 150 105 153
is_linear=0
shrinkage=0.0548323


Tree=50
num_leaves=11
num_cat=0
split_feature=2 1 0 1 1 2 2 1 0 2
split_gain=0.14307 0.0993339 0.0728889 0.0422343 0.0190682 0.0480015 0.0250409 0.0161231 0.0138625 0.00677608
threshold=1.4246324302383302 1.3212177365734226 1.0614621833664615 -0.31304972489706084 -0.12078296472406284 1.0000000180025095e-35 1.0000000180025095e-35 -0.88985000541605486 -1.0000000180025095e-35 -0.87529438408746063
decision_type=2 2 2 2 2 2 2 2 2 2
left_child=1 2 4 -4 6 9 8 -8 -1 -6
right_child=-2 -3 3 -5 5 -7 7 -9 -10 -11
leaf_value=0.00013301269523147545 -0.0023633205490316365 -0.0016655038841338966 0.00041746553485089724 -0.0017868397250796416 0.0016325010156306692 -0.00052797370381625424 0.0025855159852099371 0.0011567748334821099 0.0012742665044320801 0.00077950514226432217
leaf_weight=64 69 70 49 56 56 84 48 47 64 56
leaf_count=64 69 70 49 56 56 84 48 47 64 56
internal_value=0 0.000274527 0.000533692 -0.000758164 0.000857426 0.00046287 0.00120421 0.00187867 0.00070364 0.001206
internal_weight=0 594 524 105 419 196 223 95 128 112
internal_count=663 594 524 105 419 196 223 95 128 112
is_linear=0
shrinkage=0.0548323


Tree=51
num_leaves=11
num_cat=0
split_feature=2 0 1 1 0 2 0 0 1 1
split_gain=0.134537 0.22627 0.197365 0.0840782 0.0677815 0.0359312 0.0361179 0.0102909 0.0265349 0.0250967
threshold=1.0000000180025095e-35 -1.061462183366461 -1.0821167655890529 0.8405508361409274 1.0000000180025095e-35 -1.2347626429937713 1.0614621833664615 -1.0000000180025095e-35 1.0000000180025095e-35 1.0000000180025095e-35
decision_type=2 2 2 2 2 2 2 2 2 2
left_child=5 -2 -3 4 -4 -1 7 8 -7 -9
right_child=1 2 3 -5 -6 6 -8 9 -10 -11
leaf_value=0.0017376346726573175 0.0021181187617100874 0.0016507291890873201 -0.00042004745133033964 -0.0040015839675391672 -0.0027360446241671906 0.00031778959550365378 -0.00086927264472836947 0.0011836109852211875 0.0020896425579665112 -0.00053955546898719971
leaf_weight=85 64 48 77 59 75 54 51 54 48 48
leaf_count=85 64 48 77 59 75 54 51 54 48 48
internal_value=0 -0.00080138 -0.0015228 -0.00224474 -0.00156281 0.000761311 0.00043587 0.000762156 0.0011516 0.000372709
internal_weight=0 323 259 211 152 340 255 204 102 102
internal_count=663 323 259 211 152 340 255 204 102 102
is_linear=0
shrinkage=0.0548323


Tree=52
num_leaves=10
num_cat=0
split_feature=2 1 1 1 0 0 0 1 2
split_gain=0.124375 0.0798533 0.0573356 0.0283346 0.0628587 0.00752723 0.00092764 0.00683896 0.00853074
threshold=0.90449043365781956 1.0000000180025095e-35 1.3212177365734226 -1.2743835257620508 1.0614621833664615 1.0000000180025095e-35 -1.0000000180025095e-35 0.45601731579493127 -0.4639194031537815
decision_type=2 2 2 2 2 2 2 2 2
left_child=2 -2 3 -1 5 6 7 8 -5
right_child=1 -3 -4 4 -6 -7 -8 -9 -10
leaf_value=0.0017329286097157561 -0.00019012210686255245 -0.0026998116165468564 -0.0011808416166934892 0.0003043727502403222 -0.00093927172215262555 0.00033455455601141571 0.00080213931998499878 0.0015783106513784727 0.0012790211506693654
leaf_weight=60 81 72 60 54 78 78 78 48 54
leaf_count=60 81 72 60 54 78 78 78 48 54
internal_value=0 -0.00137115 0.000411346 0.000623637 0.000452977 0.000801039 0.000956534 0.00103373 0.000791697
internal_weight=0 153 510 450 390 312 234 156 108
internal_count=663 153 510 450 390 312 234 156 108
is_linear=0
shrinkage=0.0548323


Tree=53
num_leaves=10
num_cat=0
split_feature=2 1 0 1 0 0 2 0 1
split_gain=0.115508 0.0775436 0.139521 0.0467334 0.0574512 0.00781697 0.00503147 0.00599712 0.000839435
threshold=1.4246324302383302 0.64828407596792947 -1.0000000180025095e-35 -1.2743835257620508 1.0614621833664615 1.0000000180025095e-35 0.4419900856158544 -1.061462183366461 -0.31304972489706084
decision_type=2 2 2 2 2 2 2 2 2
left_child=1 3 -3 -1 5 6 7 -5 -9
right_child=-2 2 -4 4 -6 -7 -8 8 -10
leaf_value=0.0019445778566943147 -0.0021235107813572752 0.0011734640230384747 -0.0019868634085029382 0.0002535156576090686 -0.0010123090653011606 0.00024308564033481849 0.0013415362747752444 0.0011478575388084377 0.00083012621574363101
leaf_weight=70 69 70 105 50 70 70 59 50 50
leaf_count=70 69 70 105 50 70 70 59 50 50
internal_value=0 0.00024667 -0.000722732 0.000651552 0.000392206 0.000744594 0.000912563 0.000743833 0.000988992
internal_weight=0 594 175 419 349 279 209 150 100
internal_count=663 594 175 419 349 279 209 150 100
is_linear=0
shrinkage=0.0548323


Tree=54
num_leaves=11
num_cat=0
split_feature=2 0 1 1 0 2 0 0 1 1
split_gain=0.11036 0.194373 0.164186 0.0676124 0.0551249 0.032296 0.0263425 0.00762031 0.0240607 0.0185644
threshold=1.0000000180025095e-35 -1.061462183366461 -1.0821167655890529 0.8405508361409274 1.0000000180025095e-35 -1.2347626429937713 1.0614621833664615 -1.0000000180025095e-35 1.0000000180025095e-35 1.0000000180025095e-35
decision_type=2 2 2 2 2 2 2 2 2 2
left_child=5 -2 -3 4 -4 -1 7 8 -7 -9
right_child=1 2 3 -5 -6 6 -8 9 -10 -11
leaf_value=0.0016151381629974826 0.0019800977051074265 0.0015000616935631167 -0.00041083395514042659 -0.0036283682037566568 -0.0024994391755854784 0.00020077143794884592 -0.00073363606705080715 0.0010219378354409791 0.0018879967517250612 -0.00046009970560612008
leaf_weight=85 64 48 77 59 75 54 51 54 48 48
leaf_count=85 64 48 77 59 75 54 51 54 48 48
internal_value=0 -0.00072581 -0.00139445 -0.00205292 -0.0014414 0.00068952 0.00038098 0.000659634 0.00099476 0.000324508
internal_weight=0 323 259 211 152 340 255 204 102 102
internal_count=663 323 259 211 152 340 255 204 102 102
is_linear=0
shrinkage=0.0548323


Tree=55
num_leaves=10
num_cat=0
split_feature=2 1 1 0 0 1 0 2 0
split_gain=0.0998606 0.0683951 0.0479166 0.0790977 0.0139746 0.00360233 0.0129988 0.0111436 0.0036994
threshold=1.4246324302383302 1.3212177365734226 -1.2743835257620508 1.0614621833664615 1.0000000180025095e-35 -0.12078296472406284 -1.0000000180025095e-35 1.0000000180025095e-35 -1.061462183366461
decision_type=2 2 2 2 2 2 2 2 2
left_child=1 2 -1 4 5 7 8 -4 -7
right_child=-2 -3 3 -5 -6 6 -8 -9 -10
leaf_value=0.0017797482799060092 -0.0019744472515288432 -0.0013804474148816285 0.00056988084100888573 -0.0012070022170572079 1.2700637826078909e-05 0.0013151528046101331 -0.00011553119967884705 0.0016174942384695674 0.00064137087072363202
leaf_weight=70 69 70 72 91 91 49 49 53 49
leaf_count=70 69 70 72 91 91 49 49 53 49
internal_value=0 0.000229355 0.000444405 0.000238515 0.00060089 0.000797674 0.000613664 0.00101407 0.000978262
internal_weight=0 594 524 454 363 272 147 125 98
internal_count=663 594 524 454 363 272 147 125 98
is_linear=0
shrinkage=0.0548323


Tree=56
num_leaves=11
num_cat=0
split_feature=2 0 1 1 0 2 0 0 1 1
split_gain=0.0963355 0.168713 0.141821 0.0594149 0.0558606 0.0288514 0.0211176 0.00620594 0.0222331 0.0153517
threshold=1.0000000180025095e-35 -1.061462183366461 -1.0821167655890529 0.45601731579493127 1.0000000180025095e-35 -1.2347626429937713 1.0614621833664615 -1.0000000180025095e-35 1.0000000180025095e-35 1.0000000180025095e-35
decision_type=2 2 2 2 2 2 2 2 2 2
left_child=5 -2 -3 4 -4 -1 7 8 -7 -9
right_child=1 2 3 -5 -6 6 -8 9 -10 -11
leaf_value=0.0015190857217104109 0.0018428563894615419 0.0013890883808667445 4.6132200167507357e-05 -0.0029903316752256546 -0.0023004709461644569 0.00014128454472852987 -0.00064537461610782306 0.00093388159897711174 0.0017631665137998293 -0.00041383367069111957
leaf_weight=85 64 48 61 89 61 54 51 54 48 48
leaf_count=85 64 48 61 89 61 54 51 54 48 48
internal_value=0 -0.000678127 -0.00130107 -0.00191305 -0.00112717 0.000644221 0.000352599 0.000602093 0.000904523 0.000299663
internal_weight=0 323 259 211 122 340 255 204 102 102
internal_count=663 323 259 211 122 340 255 204 102 102
is_linear=0
shrinkage=0.0548323


Tree=57
num_leaves=10
num_cat=0
split_feature=2 0 1 2 1 0 1 0 1
split_gain=0.0879048 0.154977 0.0703767 0.0327938 0.0420652 0.117167 0.0486927 0.0251711 0.0236569
threshold=0.4419900856158544 -1.061462183366461 -0.88985000541605486 -1.2347626429937713 -0.31304972489706084 -1.0000000180025095e-35 0.8405508361409274 -1.0000000180025095e-35 0.45601731579493127
decision_type=2 2 2 2 2 2 2 2 2
left_child=3 -2 -3 -1 7 -6 -7 -5 -4
right_child=1 2 8 4 5 6 -8 -9 -10
leaf_value=0.0014357907187171779 0.0019769398862104284 0.00030453315558893562 -0.0015016132989907264 6.0147472274385417e-05 0.0013468036624844223 -0.00046040894491213371 -0.0027150228199731533 0.0015609320046433689 -0.0029139122502538123
leaf_weight=85 47 47 79 56 80 72 48 84 65
leaf_count=85 47 47 79 56 80 72 48 84 65
internal_value=0 -0.000843708 -0.00153779 0.000472476 0.000231648 -0.000278631 -0.00136225 0.000960618 -0.00213911
internal_weight=0 238 191 425 340 200 120 140 144
internal_count=663 238 191 425 340 200 120 140 144
is_linear=0
shrinkage=0.0548323


Tree=58
num_leaves=9
num_cat=0
split_feature=2 1 1 0 0 1 2 1
split_gain=0.0821542 0.0542373 0.0372597 0.0627481 0.00930311 0.00264318 0.00715427 0.00183172
threshold=1.4246324302383302 1.3212177365734226 -1.2743835257620508 1.0614621833664615 1.0000000180025095e-35 -0.31304972489706084 -0.4639194031537815 0.45601731579493127
decision_type=2 2 2 2 2 2 2 2
left_child=1 2 -1 4 5 -4 -7 -8
right_child=-2 -3 3 -5 -6 6 7 -9
leaf_value=0.0015770557799039851 -0.0017908673463161353 -0.0012255068251418332 0.00091685829231368714 -0.0010695065474664507 6.0822614658393453e-05 0.0009780038853894244 0.00049663723279166807 1.5068980470327659e-05
leaf_weight=70 69 70 105 91 91 72 47 48
leaf_count=70 69 70 105 91 91 72 47 48
internal_value=0 0.00020803 0.000399533 0.000217977 0.000540734 0.000701293 0.000565758 0.000253319
internal_weight=0 594 524 454 363 272 167 95
internal_count=663 594 524 454 363 272 167 95
is_linear=0
shrinkage=0.0548323


Tree=59
num_leaves=11
num_cat=0
split_feature=2 0 1 1 0 2 0 0 1 1
split_gain=0.0740104 0.133888 0.114005 0.0474581 0.0394347 0.022616 0.0158717 0.0042844 0.0195987 0.00995732
threshold=1.0000000180025095e-35 -1.061462183366461 -1.0821167655890529 0.8405508361409274 1.0000000180025095e-35 -1.2347626429937713 1.0614621833664615 -1.0000000180025095e-35 1.0000000180025095e-35 1.0000000180025095e-35
decision_type=2 2 2 2 2 2 2 2 2 2
left_child=5 -2 -3 4 -4 -1 7 8 -7 -9
right_child=1 2 3 -5 -6 6 -8 9 -10 -11
leaf_value=0.0013392408434377871 0.0016513978319038722 0.0012626287312015425 -0.00031403134826440678 -0.003017928379801027 -0.0020805648100524453 5.745384929445572e-05 -0.00055871414495418394 0.00078225607871618586 0.0015802188743799113 -0.00030314543207656593
leaf_weight=85 64 48 77 59 75 54 51 54 48 48
leaf_count=85 64 48 77 59 75 54 51 54 48 48
internal_value=0 -0.000594381 -0.00114932 -0.00169801 -0.00118568 0.000564662 0.000306468 0.000522764 0.000774049 0.000271479
internal_weight=0 323 259 211 152 340 255 204 102 102
internal_count=663 323 259 211 152 340 255 204 102 102
is_linear=0
shrinkage=0.0548323


Tree=60
num_leaves=9
num_cat=0
split_feature=2 1 1 0 0 1 2 2
split_gain=0.0711056 0.0461774 0.0309436 0.0515333 0.00681181 0.00231012 0.0105017 0.0068325
threshold=1.4246324302383302 1.3212177365734226 -1.2743835257620508 1.0614621833664615 1.0000000180025095e-35 -0.12078296472406284 1.0000000180025095e-35 -0.4639194031537815
decision_type=2 2 2 2 2 2 2 2
left_child=1 2 -1 4 5 6 -4 -7
right_child=-2 -3 3 -5 -6 7 -8 -9
leaf_value=0.0014433260071952737 -0.0016660973558797563 -0.0011292037586730602 0.00037675528455754506 -0.00096198613516419132 8.6624458788632521e-05 0.00091896932739340834 0.0013937458886156132 0.00016357250360602132
leaf_weight=70 69 70 72 91 91 63 53 84
leaf_count=70 69 70 72 91 91 63 53 84
internal_value=0 0.000193537 0.000370239 0.000204784 0.000497281 0.000634669 0.000807959 0.000487314
internal_weight=0 594 524 454 363 272 125 147
internal_count=663 594 524 454 363 272 125 147
is_linear=0
shrinkage=0.0548323


Tree=61
num_leaves=10
num_cat=0
split_feature=2 1 2 0 0 1 1 2 1
split_gain=0.0650551 0.0465685 0.0310578 0.0441241 0.0113581 0.0443282 0.0080654 0.00826469 0.00391588
threshold=0.90449043365781956 1.0000000180025095e-35 -1.2347626429937713 1.0614621833664615 -1.0000000180025095e-35 0.26375055562193317 0.64828407596792947 1.0000000180025095e-35 -0.69758324524305682
decision_type=2 2 2 2 2 2 2 2 2
left_child=2 -2 -1 4 6 8 7 -4 -6
right_child=1 -3 3 -5 5 -7 -8 -9 -10
leaf_value=0.001254297871468624 -8.974807855851948e-05 -0.0020062970269568402 8.7068223857546975e-05 -0.0010112684732713141 0.0011524906788720516 -0.00098971974083553378 0.0012875080622856839 0.0010159353710478577 0.0004662423691991217
leaf_weight=85 81 72 72 85 50 70 50 48 50
leaf_count=85 81 72 72 85 50 70 50 48 50
internal_value=0 -0.000991653 0.000297496 0.000106136 0.000385487 6.85663e-05 0.000702407 0.000458615 0.000809367
internal_weight=0 153 510 425 340 170 170 120 100
internal_count=663 153 510 425 340 170 170 120 100
is_linear=0
shrinkage=0.0548323


Tree=62
num_leaves=9
num_cat=0
split_feature=2 0 1 1 0 2 1 0
split_gain=0.0597855 0.115137 0.0953296 0.0388088 0.0321074 0.0173287 0.0131225 0.0560068
threshold=1.0000000180025095e-35 -1.061462183366461 -1.0821167655890529 0.8405508361409274 1.0000000180025095e-35 -1.2347626429937713 -0.31304972489706084 -1.0000000180025095e-35
decision_type=2 2 2 2 2 2 2 2
left_child=5 -2 -3 4 -4 -1 -7 -8
right_child=1 2 3 -5 -6 6 7 -9
leaf_value=0.0011855218131932392 0.0015483694306361621 0.0011567416017427342 -0.00030076199495159017 -0.0027441657851109131 -0.0018947499012657791 0.00075163637373716272 0.0012500504065333315 -0.00091269710626599304
leaf_weight=85 64 48 77 59 75 105 60 90
leaf_count=85 64 48 77 59 75 105 60 90
internal_value=0 -0.000534215 -0.00104883 -0.00155057 -0.00108727 0.000507504 0.000281498 -4.75981e-05
internal_weight=0 323 259 211 152 340 255 150
internal_count=663 323 259 211 152 340 255 150
is_linear=0
shrinkage=0.0548323


Tree=63
num_leaves=9
num_cat=0
split_feature=2 1 1 0 0 1 2 1
split_gain=0.0574226 0.037747 0.0241546 0.0393934 0.0043161 0.00159522 0.00392785 0.001017
threshold=1.4246324302383302 1.3212177365734226 -1.2743835257620508 1.0614621833664615 1.0000000180025095e-35 -0.31304972489706084 -0.4639194031537815 0.45601731579493127
decision_type=2 2 2 2 2 2 2 2
left_child=1 2 -1 4 5 -4 -7 -8
right_child=-2 -3 3 -5 -6 6 7 -9
leaf_value=0.0012817711337306883 -0.0014972344604765834 -0.0010219958700977345 0.00072006091342079388 -0.00083262464574030673 0.00011634993759873354 0.00075276038074573723 0.00039710108365559018 3.8271092827341049e-05
leaf_weight=70 69 70 105 91 91 72 47 48
leaf_count=70 69 70 105 91 91 72 47 48
internal_value=0 0.000173921 0.000333681 0.0001875 0.000443233 0.000552595 0.000447302 0.000215798
internal_weight=0 594 524 454 363 272 167 95
internal_count=663 594 524 454 363 272 167 95
is_linear=0
shrinkage=0.0548323


Tree=64
num_leaves=10
num_cat=0
split_feature=2 0 0 1 2 1 0 1 0
split_gain=0.0515233 0.109843 0.0450152 0.113916 0.019588 0.0256507 0.0759591 0.0370734 0.0263677
threshold=0.4419900856158544 -1.061462183366461 1.0614621833664615 1.0000000180025095e-35 -1.2347626429937713 -0.31304972489706084 -1.0000000180025095e-35 0.8405508361409274 -1.0000000180025095e-35
decision_type=2 2 2 2 2 2 2 2 2
left_child=4 -2 3 -3 -1 8 -7 -8 -6
right_child=1 2 -4 -5 5 6 7 -9 -10
leaf_value=0.0011062260602239999 0.0017287346266334923 0.00068923931241131147 -0.0027037130376901574 -0.0024026806290408484 -0.00017678557499502715 0.0010858777978445596 -0.00030845288488802263 -0.0022757569391083682 0.0013592577602847865
leaf_weight=85 47 77 47 67 56 80 72 48 84
leaf_count=85 47 77 47 67 56 80 72 48 84
internal_value=0 -0.000645933 -0.00123028 -0.000749362 0.000361723 0.000175597 -0.000222874 -0.00109537 0.00074484
internal_weight=0 238 191 144 425 340 200 120 140
internal_count=663 238 191 144 425 340 200 120 140
is_linear=0
shrinkage=0.0548323


Tree=65
num_leaves=10
num_cat=0
split_feature=2 1 1 0 2 0 0 2 1
split_gain=0.0489189 0.0308034 0.0203962 0.0323715 0.00344907 0.0248652 0.00642327 0.00335131 0.00699204
threshold=1.4246324302383302 1.3212177365734226 -1.2743835257620508 1.0614621833664615 0.4419900856158544 -1.0000000180025095e-35 -1.061462183366461 -0.4639194031537815 1.0000000180025095e-35
decision_type=2 2 2 2 2 2 2 2 2
left_child=1 2 -1 4 6 -6 -4 8 -8
right_child=-2 -3 3 -5 5 -7 7 -9 -10
leaf_value=0.0011760616180153526 -0.0013819331684623813 -0.00091980906911083202 3.6673345094659791e-05 -0.00075422753135063808 0.00097752597236957324 -0.00072645553589489973 0.00045923661490206142 0.00038767259540055838 0.0013095214948049287
leaf_weight=70 69 70 65 91 52 51 63 78 54
leaf_count=70 69 70 65 91 52 51 63 78 54
internal_value=0 0.000160528 0.000304847 0.000170519 0.000402343 0.000133807 0.000508724 0.000666075 0.000851676
internal_weight=0 594 524 454 363 103 260 195 117
internal_count=663 594 524 454 363 103 260 195 117
is_linear=0
shrinkage=0.0548323


Tree=66
num_leaves=9
num_cat=0
split_feature=2 1 1 0 0 2 0 2
split_gain=0.0437013 0.0275179 0.0182208 0.0289188 0.00323673 0.0014593 0.0042148 0.00192991
threshold=1.4246324302383302 1.3212177365734226 -1.2743835257620508 1.0614621833664615 1.0000000180025095e-35 0.4419900856158544 -1.061462183366461 -0.4639194031537815
decision_type=2 2 2 2 2 2 2 2
left_child=1 2 -1 4 5 6 -4 -8
right_child=-2 -3 3 -5 -6 -7 7 -9
leaf_value=0.001111575420583375 -0.001306158558693303 -0.00086937378181319567 3.4662466006932134e-05 -0.00071287151885390397 9.7207313950606051e-05 0.0006771004326392902 0.00074793403283686442 0.00031668495730007782
leaf_weight=70 69 70 65 91 91 77 78 52
leaf_count=70 69 70 65 91 91 77 78 52
internal_value=0 0.000151725 0.000288132 0.000161169 0.000380281 0.000474986 0.000395177 0.000575434
internal_weight=0 594 524 454 363 272 195 130
internal_count=663 594 524 454 363 272 195 130
is_linear=0
shrinkage=0.0548323


Tree=67
num_leaves=9
num_cat=0
split_feature=2 0 1 1 0 2 1 0
split_gain=0.0416318 0.088198 0.0737811 0.0291772 0.0306921 0.0133796 0.00803639 0.0422103
threshold=1.0000000180025095e-35 -1.061462183366461 -1.0821167655890529 0.45601731579493127 1.0000000180025095e-35 -1.2347626429937713 -0.31304972489706084 -1.0000000180025095e-35
decision_type=2 2 2 2 2 2 2 2
left_child=5 -2 -3 4 -4 -1 -7 -8
right_child=1 2 3 -5 -6 6 7 -9
leaf_value=0.0010192722356362333 0.0013769493541659983 0.001044152141450923 8.2818336629019899e-05 -0.0020925256104137088 -0.0016565830169591633 0.00059282613861328011 0.0010939081278901314 -0.00078365569361494105
leaf_weight=85 64 48 61 89 61 105 60 90
leaf_count=85 64 48 61 89 61 105 60 90
internal_value=0 -0.000445791 -0.000896197 -0.0013376 -0.000786882 0.000423501 0.000224911 -3.26302e-05
internal_weight=0 323 259 211 122 340 255 150
internal_count=663 323 259 211 122 340 255 150
is_linear=0
shrinkage=0.0548323


Tree=68
num_leaves=10
num_cat=0
split_feature=2 0 2 1 1 0 0 0 1
split_gain=0.0380117 0.0307526 0.0183763 0.0271988 0.0119394 0.0302692 0.00234045 0.00133014 0.00417559
threshold=0.90449043365781956 1.0000000180025095e-35 -1.2347626429937713 1.3212177365734226 -1.2743835257620508 1.0614621833664615 1.0000000180025095e-35 -1.061462183366461 -0.12078296472406284
decision_type=2 2 2 2 2 2 2 2 2
left_child=2 -2 -1 4 -4 6 7 -6 -9
right_child=1 -3 3 -5 5 -7 -8 8 -10
leaf_value=0.00096338316169565128 -0.00012501606983075363 -0.0017127019846375836 0.0010291856064926963 -0.0011210797554925917 0.00027606545027828485 -0.00093931534847703534 9.8666770225361552e-05 0.00091551452848295312 0.00029214953756794514
leaf_weight=85 92 61 50 50 65 65 65 60 70
leaf_count=85 92 61 50 50 65 65 65 60 70
internal_value=0 -0.000758015 0.000227405 8.02088e-05 0.000240381 0.000119026 0.000383611 0.000478593 0.000579856
internal_weight=0 153 510 425 375 325 260 195 130
internal_count=663 153 510 425 375 325 260 195 130
is_linear=0
shrinkage=0.0548323


Tree=69
num_leaves=11
num_cat=0
split_feature=2 1 1 2 0 2 0 0 1 2
split_gain=0.0352655 0.0209071 0.0133755 0.0208748 0.0723799 0.0103428 0.00998808 0.00150064 0.0022836 0.00596374
threshold=1.4246324302383302 1.3212177365734226 -1.2743835257620508 0.4419900856158544 1.0000000180025095e-35 -1.2347626429937713 1.0614621833664615 -1.061462183366461 -0.31304972489706084 -0.4639194031537815
decision_type=2 2 2 2 2 2 2 2 2 2
left_child=1 2 -1 5 -5 -4 7 -7 -9 -10
right_child=-2 -3 3 4 -6 6 -8 8 9 -11
leaf_value=0.00096070717517343792 -0.0011733391818394084 -0.00075373844504621245 0.00099931028429057155 0.0006236100948434093 -0.0020242396987420063 0.00014082989131928599 -0.00045370604697278553 0.0007463234481420067 0.00074728054866824529 -0.0001170707990175113
leaf_weight=70 69 70 65 77 52 52 52 60 48 48
leaf_count=70 69 70 65 77 52 52 52 60 48 48
internal_value=0 0.000136297 0.000255195 0.000146415 -0.00044374 0.000380662 0.000226 0.000395926 0.000480958 0.000315105
internal_weight=0 594 524 454 129 325 260 208 156 96
internal_count=663 594 524 454 129 325 260 208 156 96
is_linear=0
shrinkage=0.0548323


Tree=70
num_leaves=11
num_cat=0
split_feature=2 1 1 2 0 2 0 0 1 2
split_gain=0.0315042 0.0186772 0.0119489 0.0186483 0.06466 0.00923966 0.00892277 0.00134059 0.00204003 0.00532766
threshold=1.4246324302383302 1.3212177365734226 -1.2743835257620508 0.4419900856158544 1.0000000180025095e-35 -1.2347626429937713 1.0614621833664615 -1.061462183366461 -0.31304972489706084 -0.4639194031537815
decision_type=2 2 2 2 2 2 2 2 2 2
left_child=1 2 -1 5 -5 -4 7 -7 -9 -10
right_child=-2 -3 3 4 -6 6 -8 8 9 -11
leaf_value=0.00090802937080335295 -0.0011090023182911211 -0.00071240925326615783 0.00094451579504750325 0.00058941610485976502 -0.0019132459869325076 0.00013310785695391653 -0.00042882827621809703 0.00070540079055893322 0.00070630543920713698 -0.00011065153687252197
leaf_weight=70 69 70 65 77 52 52 52 60 48 48
leaf_count=70 69 70 65 77 52 52 52 60 48 48
internal_value=0 0.000128823 0.000241202 0.000138387 -0.000419409 0.000359789 0.000213608 0.000374217 0.000454586 0.000297827
internal_weight=0 594 524 454 129 325 260 208 156 96
internal_count=663 594 524 454 129 325 260 208 156 96
is_linear=0
shrinkage=0.0548323


Tree=71
num_leaves=11
num_cat=0
split_feature=2 1 1 2 0 2 0 0 1 2
split_gain=0.028144 0.0166851 0.0106744 0.0166593 0.0577635 0.00825417 0.00797108 0.0011976 0.00182245 0.00475942
threshold=1.4246324302383302 1.3212177365734226 -1.2743835257620508 0.4419900856158544 1.0000000180025095e-35 -1.2347626429937713 1.0614621833664615 -1.061462183366461 -0.31304972489706084 -0.4639194031537815
decision_type=2 2 2 2 2 2 2 2 2 2
left_child=1 2 -1 5 -5 -4 7 -7 -9 -10
right_child=-2 -3 3 4 -6 6 -8 8 9 -11
leaf_value=0.0008582399972865911 -0.0010481931284885011 -0.00067334618764039336 0.00089272580209370355 0.00055709705784124655 -0.0018083382496340815 0.00012580924576665453 -0.00040531464120756528 0.00066672202439372198 0.00066757706452831502 -0.00010458426653886214
leaf_weight=70 69 70 65 77 52 52 52 60 48 48
leaf_count=70 69 70 65 77 52 52 52 60 48 48
internal_value=0 0.00012176 0.000227976 0.000130799 -0.000396412 0.000340061 0.000201895 0.000353697 0.00042966 0.000281496
internal_weight=0 594 524 454 129 325 260 208 156 96
internal_count=663 594 524 454 129 325 260 208 156 96
is_linear=0
shrinkage=0.0548323


Tree=72
num_leaves=11
num_cat=0
split_feature=0 1 2 1 1 2 1 0 0 1
split_gain=0.0254542 0.0624469 0.0542857 0.0236412 0.0145907 0.00974238 0.0200533 0.0247608 0.00296749 0.0033698
threshold=-1.061462183366461 1.3212177365734226 0.90449043365781956 0.45601731579493127 -0.12078296472406284 -1.2347626429937713 -0.88985000541605486 1.0614621833664615 -1.0000000180025095e-35 0.26375055562193317
decision_type=2 2 2 2 2 2 2 2 2 2
left_child=3 2 5 -1 -4 -2 -7 8 -8 -10
right_child=1 -3 4 -5 -6 6 7 -9 9 -11
leaf_value=0.00013576580808514796 0.0010092368123726038 -0.0018048372817616738 -0.0004519826780600007 0.0016682623814116906 -0.0017272872973909509 0.00098726546183870267 0.00063821526221768173 -0.0010340437382698674 0.00042197894944812542 -0.00018752189439732246
leaf_weight=85 60 62 60 47 49 80 55 55 60 50
leaf_count=85 60 62 60 47 49 80 55 55 60 50
internal_value=0 -0.000169394 4.68049e-05 0.000681427 -0.00102528 0.00037141 0.000243844 -2.64906e-05 0.00030936 0.000144933
internal_weight=0 531 469 132 109 360 300 220 165 110
internal_count=663 531 469 132 109 360 300 220 165 110
is_linear=0
shrinkage=0.0548323


Tree=73
num_leaves=10
num_cat=0
split_feature=2 2 1 0 0 1 1 2 2
split_gain=0.0231357 0.0135249 0.027274 0.0449668 0.0246317 0.0404449 0.00779112 0.0115755 0.00141048
threshold=1.4246324302383302 -1.2347626429937713 -1.2743835257620508 1.0614621833664615 -1.061462183366461 1.0328175963139254 -0.12078296472406284 1.0000000180025095e-35 1.0000000180025095e-35
decision_type=2 2 2 2 2 2 2 2 2
left_child=1 -1 -3 4 -4 6 8 -8 -6
right_child=-2 2 3 -5 5 -7 7 -9 -10
leaf_value=0.00075066163922272197 -0.00095036315545361935 0.001101468140455976 0.00091671762282561145 -0.0012391862949918708 0.00034012639822626989 -0.0014727905222725369 0.00044485993616107073 -0.00069047831639339207 0.00073830499383539631
leaf_weight=85 69 60 90 90 54 54 54 54 53
leaf_count=85 69 60 90 90 54 54 54 54 53
internal_value=0 0.000110396 3.47508e-06 -0.00014325 0.000131497 -0.000131216 0.000205738 -0.000122809 0.000537355
internal_weight=0 594 509 449 359 269 215 108 107
internal_count=663 594 509 449 359 269 215 108 107
is_linear=0
shrinkage=0.0548323


Tree=74
num_leaves=10
num_cat=0
split_feature=2 2 1 0 0 1 1 2 2
split_gain=0.0206681 0.0120824 0.024365 0.0401707 0.0220045 0.0361311 0.00696013 0.0103409 0.00126005
threshold=1.4246324302383302 -1.2347626429937713 -1.2743835257620508 1.0614621833664615 -1.061462183366461 1.0328175963139254 -0.12078296472406284 1.0000000180025095e-35 1.0000000180025095e-35
decision_type=2 2 2 2 2 2 2 2 2
left_child=1 -1 -3 4 -4 6 8 -8 -6
right_child=-2 2 3 -5 5 -7 7 -9 -10
leaf_value=0.00070950113862891008 -0.00089825258035721692 0.0010410721044523269 0.00086645186633428791 -0.0011712388447307552 0.00032147648127199742 -0.0013920340003197391 0.00042046723602231942 -0.00065261779931038131 0.00069782204437321958
leaf_weight=85 69 60 90 90 54 54 54 54 53
leaf_count=85 69 60 90 90 54 54 54 54 53
internal_value=0 0.000104342 3.28454e-06 -0.000135395 0.000124287 -0.000124021 0.000194457 -0.000116075 0.000507891
internal_weight=0 594 509 449 359 269 215 108 107
internal_count=663 594 509 449 359 269 215 108 107
is_linear=0
shrinkage=0.0548323


Tree=75
num_leaves=9
num_cat=0
split_feature=2 0 1 1 2 2 1 0
split_gain=0.0186858 0.0590043 0.0493412 0.0201687 0.0153821 0.00564183 0.00291068 0.0296381
threshold=1.0000000180025095e-35 -1.061462183366461 -1.0821167655890529 0.8405508361409274 0.90449043365781956 -1.2347626429937713 -0.31304972489706084 -1.0000000180025095e-35
decision_type=2 2 2 2 2 2 2 2
left_child=5 -2 -3 4 -4 -1 -7 -8
right_child=1 2 3 -5 -6 6 7 -9
leaf_value=0.00067059754299772815 0.0011922033586641981 0.00091970752999248444 -0.00017074119939700466 -0.001888484678881883 -0.0012754670150530523 0.00037618661253906193 0.00094375226771371801 -0.00062954420230713947
leaf_weight=85 64 48 80 59 72 105 60 90
leaf_count=85 64 48 80 59 72 105 60 90
internal_value=0 -0.000298658 -0.000667056 -0.00102803 -0.000694032 0.000283725 0.000154768 -2.25614e-07
internal_weight=0 323 259 211 152 340 255 150
internal_count=663 323 259 211 152 340 255 150
is_linear=0
shrinkage=0.0548323


Tree=76
num_leaves=10
num_cat=0
split_feature=2 2 1 1 0 1 2 0 2
split_gain=0.0172293 0.00956933 0.0200876 0.0153268 0.023232 0.00332717 0.0060375 0.00251967 0.00221683
threshold=1.4246324302383302 -1.2347626429937713 1.3212177365734226 -1.2743835257620508 1.0614621833664615 1.0000000180025095e-35 0.4419900856158544 -1.0000000180025095e-35 1.0000000180025095e-35
decision_type=2 2 2 2 2 2 2 2 2
left_child=1 -1 3 -3 5 8 7 -7 -5
right_child=-2 2 -4 4 -6 6 -8 -9 -10
leaf_value=0.00063382711408349298 -0.00082013000089253742 0.0009469651107941419 -0.0009369688623057157 0.00018560271063545027 -0.00084069720834776759 0.00055647629690239663 -0.00047760243221745967 -5.3504513960590697e-06 0.00058516284135209451
leaf_weight=85 69 60 60 84 78 48 48 48 83
leaf_count=85 69 60 60 84 78 48 48 48 83
internal_value=0 9.52676e-05 5.33136e-06 0.000131251 5.43415e-06 0.000217647 2.45078e-05 0.000275563 0.000384186
internal_weight=0 594 509 449 389 311 144 96 167
internal_count=663 594 509 449 389 311 144 96 167
is_linear=0
shrinkage=0.0548323


Tree=77
num_leaves=10
num_cat=0
split_feature=2 0 1 1 0 0 1 1 0
split_gain=0.0155715 0.0520368 0.0423481 0.0172649 0.0155837 0.00560138 0.0276665 0.0146649 0.0107074
threshold=1.0000000180025095e-35 -1.061462183366461 -1.0821167655890529 0.45601731579493127 1.0000000180025095e-35 1.0614621833664615 -1.0821167655890529 1.0328175963139254 -1.0000000180025095e-35
decision_type=2 2 2 2 2 2 2 2 2
left_child=5 -2 -3 4 -4 6 -1 8 -8
right_child=1 2 3 -5 -6 -7 7 -9 -10
leaf_value=-0.001046903228037511 0.0011274366606561217 0.00085142306943090972 9.0338183269123145e-05 -0.0015337272949008424 -0.0011490932035366471 0.00070412204634596044 -0.00025566036053170866 0.0012532635749138378 0.00059970507061358385
leaf_weight=48 64 48 61 89 61 68 88 48 88
leaf_count=48 64 48 61 89 61 68 88 48 88
internal_value=0 -0.000272636 -0.0006186 -0.000953013 -0.000529378 0.000259005 0.000147725 0.000403717 0.000172022
internal_weight=0 323 259 211 122 340 272 224 176
internal_count=663 323 259 211 122 340 272 224 176
is_linear=0
shrinkage=0.0548323


Tree=78
num_leaves=10
num_cat=0
split_feature=2 2 1 1 0 1 2 0 2
split_gain=0.0149259 0.00812322 0.0181334 0.0134393 0.0203034 0.00279439 0.0048367 0.00235339 0.00188462
threshold=1.4246324302383302 -1.2347626429937713 1.3212177365734226 -1.2743835257620508 1.0614621833664615 1.0000000180025095e-35 0.4419900856158544 -1.0000000180025095e-35 1.0000000180025095e-35
decision_type=2 2 2 2 2 2 2 2 2
left_child=1 -1 3 -3 5 8 7 -7 -5
right_child=-2 2 -4 4 -6 6 -8 -9 -10
leaf_value=0.00058487107474222959 -0.00076334114993626572 0.00088928540221962324 -0.000889484103336308 0.00017554137654496638 -0.00078337470733370722 0.00052520929156966729 -0.00042039540815494718 -1.7763789095358221e-05 0.0005439489948355535
leaf_weight=85 69 60 60 84 78 48 48 48 83
leaf_count=85 69 60 60 84 78 48 48 48 83
internal_value=0 8.86709e-05 5.80844e-06 0.000125447 7.6309e-06 0.000206018 2.90167e-05 0.000253723 0.000358642
internal_weight=0 594 509 449 389 311 144 96 167
internal_count=663 594 509 449 389 311 144 96 167
is_linear=0
shrinkage=0.0548323


Tree=79
num_leaves=10
num_cat=0
split_feature=2 2 1 0 1 0 0 1 1
split_gain=0.0133339 0.00744665 0.0261682 0.0346136 0.0376431 0.0207626 0.0129225 0.0239764 0.00753567
threshold=1.4246324302383302 -0.87529438408746063 -1.2743835257620508 -1.061462183366461 1.0328175963139254 1.0614621833664615 1.0000000180025095e-35 1.0000000180025095e-35 1.0000000180025095e-35
decision_type=2 2 2 2 2 2 2 2 2
left_child=1 6 -3 -4 5 8 7 -1 -5
right_child=-2 2 3 4 -6 -7 -8 -9 -10
leaf_value=-0.00079251746821407533 -0.00072148536436680085 0.0011390013665769339 0.00085661756555212082 0.00044545661686107714 -0.0016887297374377492 -0.0010352898963181972 0.00097592063434474581 0.00089175151025479879 -0.00027561251613065932
leaf_weight=54 69 50 75 104 60 60 68 48 75
leaf_count=54 69 50 75 104 60 60 68 48 75
internal_value=0 8.38089e-05 -3.91232e-05 -0.000196627 -0.000460818 -0.000152556 0.000390416 7.96981e-08 0.000143333
internal_weight=0 594 424 374 299 239 170 102 179
internal_count=663 594 424 374 299 239 170 102 179
is_linear=0
shrinkage=0.0548323


Tree=80
num_leaves=10
num_cat=0
split_feature=2 0 1 1 2 0 1 1 0
split_gain=0.0119323 0.0430716 0.0340916 0.01351 0.0121696 0.00580618 0.0258147 0.0143561 0.00972052
threshold=1.0000000180025095e-35 -1.061462183366461 -1.0821167655890529 0.8405508361409274 0.90449043365781956 1.0614621833664615 -1.0821167655890529 1.0328175963139254 -1.0000000180025095e-35
decision_type=2 2 2 2 2 2 2 2 2
left_child=5 -2 -3 4 -4 6 -1 8 -8
right_child=1 2 3 -5 -6 -7 7 -9 -10
leaf_value=-0.001040525142842098 0.0010351099811574407 0.00076554432138074651 -0.00011465409695845318 -0.0015576970613692532 -0.0010972752826532016 0.00067990851519201178 -0.0002760320529935109 0.0012012622462207259 0.00053896329578449829
leaf_weight=48 64 48 80 59 72 68 88 48 88
leaf_count=48 64 48 80 59 72 68 88 48 88
internal_value=0 -0.00023866 -0.000553414 -0.000853461 -0.000580106 0.000226727 0.000113431 0.000360708 0.000131466
internal_weight=0 323 259 211 152 340 272 224 176
internal_count=663 323 259 211 152 340 272 224 176
is_linear=0
shrinkage=0.0548323


Tree=81
num_leaves=10
num_cat=0
split_feature=2 2 1 1 0 0 1 0 1
split_gain=0.0110746 0.00646253 0.0144542 0.0105448 0.0163128 0.0023152 0.0016752 0.00173762 0.000661276
threshold=1.4246324302383302 -1.2347626429937713 1.3212177365734226 -1.2743835257620508 1.0614621833664615 1.0000000180025095e-35 -0.31304972489706084 -1.0000000180025095e-35 0.45601731579493127
decision_type=2 2 2 2 2 2 2 2 2
left_child=1 -1 3 -3 5 6 -5 8 -8
right_child=-2 2 -4 4 -6 -7 7 -9 -10
leaf_value=0.00051896186072422526 -0.00065752682762103959 0.00078588413145974276 -0.00079685202307868373 0.00045463716817260066 -0.00070409542306887622 -7.5822155567166889e-05 0.00014249961668816395 -0.00012049942935632884 0.00043032051970413421
leaf_weight=85 69 60 60 90 78 78 48 47 48
leaf_count=85 69 60 60 90 78 78 48 47 48
internal_value=0 7.63794e-05 2.47071e-06 0.000109284 4.92459e-06 0.00018275 0.00026931 0.000152671 0.00028641
internal_weight=0 594 509 449 389 311 233 143 96
internal_count=663 594 509 449 389 311 233 143 96
is_linear=0
shrinkage=0.0548323


Tree=82
num_leaves=10
num_cat=0
split_feature=2 0 1 1 0 0 1 1 0
split_gain=0.00995478 0.0377185 0.0293176 0.0119042 0.0121438 0.00574072 0.0239277 0.013508 0.00899062
threshold=1.0000000180025095e-35 -1.061462183366461 -1.0821167655890529 0.45601731579493127 1.0000000180025095e-35 1.0614621833664615 -1.0821167655890529 1.0328175963139254 -1.0000000180025095e-35
decision_type=2 2 2 2 2 2 2 2 2
left_child=5 -2 -3 4 -4 6 -1 8 -8
right_child=1 2 3 -5 -6 -7 7 -9 -10
leaf_value=-0.0010165449435401753 0.00097400039579536907 0.00071059194497640702 0.00010804889584719599 -0.0012729841475627602 -0.00098606805733096646 0.00065770902307498358 -0.00028176663480385778 0.0011478502342452015 0.00050203312434805934
leaf_weight=48 64 48 61 89 61 68 88 48 88
leaf_count=48 64 48 61 89 61 68 88 48 88
internal_value=0 -0.000217989 -0.000512534 -0.000790781 -0.00043901 0.000207089 9.44342e-05 0.000332501 0.000110133
internal_weight=0 323 259 211 122 340 272 224 176
internal_count=663 323 259 211 122 340 272 224 176
is_linear=0
shrinkage=0.0548323


Tree=83
num_leaves=11
num_cat=0
split_feature=2 2 1 1 0 1 2 0 2 0
split_gain=0.00959819 0.00549326 0.0131471 0.0093091 0.0143252 0.00193153 0.00331325 0.00192289 0.00155389 0.00272279
threshold=1.4246324302383302 -1.2347626429937713 1.3212177365734226 -1.2743835257620508 1.0614621833664615 1.0000000180025095e-35 0.4419900856158544 -1.0000000180025095e-35 0.4419900856158544 -1.0000000180025095e-35
decision_type=2 2 2 2 2 2 2 2 2 2
left_child=1 -1 3 -3 5 8 7 -7 9 -5
right_child=-2 2 -4 4 -6 6 -8 -9 -10 -11
leaf_value=0.00047915079372569099 -0.00061212949955553419 0.00074055569170300656 -0.00075936124428416598 -8.7252943340409108e-05 -0.00065764369944073219 0.00045764492739929814 -0.00034569924476468816 -3.3159719570859453e-05 0.00053899076619150351 0.00045345724432942187
leaf_weight=85 69 60 60 56 78 48 48 48 55 56
leaf_count=85 69 60 60 56 78 48 48 48 55 56
internal_value=0 7.1106e-05 2.96487e-06 0.000104835 6.78008e-06 0.00017342 2.6262e-05 0.000212243 0.000300311 0.000183102
internal_weight=0 594 509 449 389 311 144 96 167 112
internal_count=663 594 509 449 389 311 144 96 167 112
is_linear=0
shrinkage=0.0548323


Tree=84
num_leaves=10
num_cat=0
split_feature=2 2 1 0 1 0 0 1 1
split_gain=0.00857447 0.00495519 0.0190075 0.0252772 0.0298282 0.0158013 0.0107466 0.0196656 0.00574522
threshold=1.4246324302383302 -0.87529438408746063 -1.2743835257620508 -1.061462183366461 1.0328175963139254 1.0614621833664615 1.0000000180025095e-35 1.0000000180025095e-35 -0.12078296472406284
decision_type=2 2 2 2 2 2 2 2 2
left_child=1 6 -3 -4 5 8 7 -1 -5
right_child=-2 2 3 4 -6 -7 -8 -9 -10
leaf_value=-0.00075646063626602286 -0.0005785649805433408 0.00097100463947978318 0.00073274897105447411 0.00045184075820636798 -0.0014861188432855107 -0.00088874875116415591 0.00085125818677573 0.00076890215447648251 -0.00016945753782047422
leaf_weight=54 69 50 75 89 60 60 68 48 90
leaf_count=54 69 50 75 89 60 60 68 48 90
internal_value=0 6.7207e-05 -3.30731e-05 -0.000167308 -0.000393075 -0.000118671 0.000317318 -3.86429e-05 0.000139456
internal_weight=0 594 424 374 299 239 170 102 179
internal_count=663 594 424 374 299 239 170 102 179
is_linear=0
shrinkage=0.0548323


Tree=85
num_leaves=10
num_cat=0
split_feature=2 1 0 1 0 1 0 1 0
split_gain=0.00771507 0.0344101 0.0436653 0.0180746 0.0353915 0.0102772 0.00751613 0.027866 0.0123602
threshold=-0.4639194031537815 -1.2743835257620508 -1.061462183366461 1.0328175963139254 1.0614621833664615 1.0000000180025095e-35 1.0614621833664615 0.8405508361409274 -1.0000000180025095e-35
decision_type=2 2 2 2 2 2 2 2 2
left_child=6 -2 -3 4 5 -4 7 8 -1
right_child=1 2 3 -5 -6 -7 -8 -9 -10
leaf_value=-0.00075580522585491844 0.0011995570200198948 0.00088145535584301571 0.00032349593442923736 -0.0015113503647540961 -0.0016195924566406589 -0.00053044441312364101 0.00083197670397034231 0.0012430686652709834 0.00022034637813114004
leaf_weight=78 50 71 101 57 56 73 51 48 78
leaf_count=78 50 71 101 57 56 73 51 48 78
internal_value=0 -0.000147873 -0.000336062 -0.00063726 -0.000420637 -3.47664e-05 0.000236597 8.77525e-05 -0.000267729
internal_weight=0 408 358 287 230 174 255 204 156
internal_count=663 408 358 287 230 174 255 204 156
is_linear=0
shrinkage=0.0548323


Tree=86
num_leaves=10
num_cat=0
split_feature=2 2 1 1 0 0 2 0 0
split_gain=0.00752826 0.00426471 0.00996899 0.00627647 0.00996243 0.00181011 0.00148589 0.00321867 0.00142472
threshold=1.4246324302383302 -1.2347626429937713 1.3212177365734226 -1.2743835257620508 1.0614621833664615 1.0000000180025095e-35 0.4419900856158544 -1.061462183366461 -1.0000000180025095e-35
decision_type=2 2 2 2 2 2 2 2 2
left_child=1 -1 3 -3 5 6 7 -5 -9
right_child=-2 2 -4 4 -6 -7 -8 8 -10
leaf_value=0.00042250541897642446 -0.00054212047454235018 0.00061364045768457268 -0.00066088695316927275 -0.00022288173181312247 -0.00054295992159468336 -7.8540157701790039e-05 0.00042372345113987175 0.00050841248205500537 0.0001025161911801426
leaf_weight=85 69 60 60 52 78 78 77 52 52
leaf_count=85 69 60 60 52 78 78 77 52 52
internal_value=0 6.29736e-05 2.93389e-06 9.16405e-05 1.11263e-05 0.000150093 0.000226632 0.000129349 0.000305464
internal_weight=0 594 509 449 389 311 233 156 104
internal_count=663 594 509 449 389 311 233 156 104
is_linear=0
shrinkage=0.0548323


Tree=87
num_leaves=10
num_cat=0
split_feature=2 2 1 1 0 0 2 0 0
split_gain=0.00672531 0.00380984 0.00890572 0.00560704 0.00889986 0.00161705 0.00132741 0.00287537 0.00127276
threshold=1.4246324302383302 -1.2347626429937713 1.3212177365734226 -1.2743835257620508 1.0614621833664615 1.0000000180025095e-35 0.4419900856158544 -1.061462183366461 -1.0000000180025095e-35
decision_type=2 2 2 2 2 2 2 2 2
left_child=1 -1 3 -3 5 6 7 -5 -9
right_child=-2 2 -4 4 -6 -7 -8 8 -10
leaf_value=0.00039933846794963385 -0.00051239473712281363 0.00057999314983770626 -0.00062464898148973649 -0.00021066061001940762 -0.00051318818584166175 -7.4233628218069747e-05 0.00040048971636849113 0.0004805350447829854 9.6894996883289592e-05
leaf_weight=85 69 60 60 52 78 78 77 52 52
leaf_count=85 69 60 60 52 78 78 77 52 52
internal_value=0 5.95206e-05 2.77302e-06 8.66156e-05 1.05162e-05 0.000141863 0.000214205 0.000122256 0.000288715
internal_weight=0 594 509 449 389 311 233 156 104
internal_count=663 594 509 449 389 311 233 156 104
is_linear=0
shrinkage=0.0548323


Tree=88
num_leaves=10
num_cat=0
split_feature=2 0 1 1 0 0 1 1 0
split_gain=0.00632787 0.0275078 0.0196852 0.00760839 0.00803856 0.00635808 0.0233573 0.0130592 0.00746653
